{"levels":[{"inputs":[0,0,0,0,0,0,0,0,0,0,0,0,0,0,0,0,0,0,0,0,0,0,0,0,0,0,0,0,0,0,0,0,0,0,0,0,0,0,0,0,0,0,0,0,0,1,1,0,0,0,0,0,0,0,0,0,0,0,0,0,0,0,1,1,1,0,0,0,0,0,0,0,0,0,0,0,0,0,0,1,1,0,0,0,0,0,0,0,0,0,0,0,0,0,0,0,1,1,0,0,0,0,0,0,0,0,0,0,0,0,0,0,0,0,1,1,0,0,0,0,0,0,0,0,0,0,0,0,0,0,0,0,1,0,0,0,0,0,0,0,0,0,0,0,0,0,0,0,0,0,0,1,1,1,1,1,0,0,0,0,0,0,0,0,0,0,0,1,1,0,0,0,0,1,0,0,0,0,0,0,0,0,0,0,0,1,1,0,0,0,0,1,0,0,0,0,0,0,0,0,0,0,0,0,1,1,0,0,1,1,0,0,0,0,0,0,0,0,0,0,0,0,0,1,1,1,1,0,0,0,0,0,0,0,0,0,0,0,0,0,0,0,0,0,0,0,0,0,0,0,0,0,0,0,0,0,0,0,0,0,0,0,0,0,0,0,0,0,0,0,0,0,0,0,0,0,0,0,0,0,0,0,0,0,0,0,0,0,0,0,0,0,0,0,0,0,0,0,0,0,0,0,0,0,0,0,0,0,0,0,0,0,0,0,0,0,0,0,0,0,0,0,0,0],"outputs":[1,0,1,1,1,0,1,0,1,0,0,0,1,0,0,1,1,1,1,1,1,1,1,1,0,1,0,1,1,0,1,1,0,1,0,1,1,1,0,0,1,0,1,1,1,1,0,0,0,0,1,1,1,0,0,1,1,1,0,0,0,1,1,1,0,1,0,1,1,1,0,0,1,1,1,1,1,1,1,0,1,0,1,0,1,0,1,1,0,1,1,1,1,0,1,1,0,0,1,0,0,1,0,1,1,0,1,0,1,1,0,0,0,1,1,1,1,1,1,0,0,1,0,0,1,0,1,1],"biases":[549.3750067410415,-1484.0354358028233,273.3534362875529,133.43883314683387,-2758.1456137027453,1262.2856296104947,1554.1059825575906,-103.06479910888268,412.0639667867755,-94.45365707227839,-288.019088962798,-142.00746209024246,656.1897928204414,615.014233517011,47.09711775927739,124.72118949715978,676.2580941502171,-43.75760326997676,-1979.6426329629667,-105.25361063366884,-185.86622418394796,-16.7854859608756,899.0873423273263,151.9531184516799,-371.5046472575499,-66.12730636306472,-1473.5156207787506,545.2352593657481,118.09182795548293,-298.20547309951854,188.81049300707576,1417.8518073423004,118.25481175746114,-3191.2602706921357,-36.28634680293155,90.96893253018521,-2649.1606163319775,-1304.6611746070794,-615.8844924421157,190.62326923876037,196.89199300191243,-1623.4279256162358,169.34443793020102,360.26689803838235,572.1232006750034,87.02940894408994,-814.2491506597416,398.3724371220466,-475.7268280314488,1202.3985000636062,966.658227644505,-99.30487858235124,1438.2030740295336,-566.7942307110051,-769.2756279527812,32.65907746545565,319.6974380348357,-2359.6115529906483,-26.625727576877246,-172.94034088860565,-133.45686186761992,-2023.4243034112471,-2441.935123523464,265.71525707139415,1436.3520949178792,361.7801108043307,1615.8535866182722,-61.18136416966268,-1837.4341697036837,297.0753664816483,-851.8256039788922,-1640.9782950071349,-2364.192143971943,872.1011659712952,547.4767720192061,1495.8862552326293,1772.7488671070842,-2496.8058502967433,-1279.461569226533,-1539.6197340407932,2034.1274975236074,-1500.5074335889715,212.75429951355804,-168.20890780005152,902.6394597312318,-1254.3416780936693,171.95062356051398,609.3838436364192,-208.52479331671955,478.26794076160655,10.976979369921212,658.684580964986,-126.25442566400986,326.2265810943136,366.2013562897913,1056.763255903954,-567.9961163463611,1654.642934777307,626.7117774957636,-793.9590585590486,1736.5579973962867,121.3992525680033,-1152.6763161972017,-98.60571749707583,479.02971832571455,-828.1703852064687,384.1016514020436,-238.86074218728007,231.6623536014029,200.17253451657467,-1332.9215179112007,-1318.635285207892,-552.2924804726683,566.4299834196022,-191.7989159805926,-1670.8863462647857,361.9040642233391,1016.4508170140258,162.69280164408838,125.18531332637463,-277.4332757091896,-2.955692832029065,1504.2257180080853,-228.70161957419626,313.9913577250545,967.7159352093959,650.1752688783456,462.2151041478064],"weights":[[0.3523769557288592,-0.9879284482722683,-0.943433363292645,-0.022604827138487327,0.5320979936411705,0.361788056149849,-0.22393893356970906,0.15248879661629733,0.6238854518532349,-0.6087728903651453,-0.11995516956833807,-0.04643220387392066,0.9080648408880712,-0.48336415357816254,0.18600037864574714,0.29491268127497827,0.9352371150332348,-0.06398483573465663,0.9228027969535195,-0.8495994633370101,-0.932910936156635,-0.18643249202801915,-0.348992537821188,-0.39334047695652785,0.7362770445667817,0.6774151969460163,-0.34482470588742187,-0.5592194227410818,0.3387071498919396,-0.635261359048994,-0.5077803777956054,0.5426532820399284,-0.20108852143171552,-0.6542168711681025,0.8656434163473019,-0.07224209205247334,0.06250788276401087,0.3312686278076544,0.1289905783690264,-0.7200457815184982,0.7346907680522485,-0.5408185058264263,-0.18236361780122756,0.5640942103716289,-0.9827404891487239,-0.03514940896300711,-0.34494133812591077,-0.11763516751830538,0.9322950434753174,0.14331724307110738,-0.26258367725376797,-0.39796125776619373,0.9349827512695739,0.18198494418558608,0.8331173754028898,-0.16996548339938533,-0.40881877093274044,-0.594525558452812,-0.8624080626108639,0.5821487689163702,-0.25420820302241953,-0.15335941904323036,-0.31869664405428866,-0.8275804096065151,-0.7291968309275454,0.9817419659517519,-0.3533328643333178,-0.6587368205561974,0.8538645693340285,0.6378712870656962,-0.9729315642314416,0.6215670382255922,0.3341206072269749,0.7900365594111558,-0.7096704440691783,-0.33915362821217476,0.84258499220212,-0.7149988159436207,0.07045704746228854,0.5842674744463907,-0.08618325812071292,-0.6587501563445737,0.6196714788990754,0.7190983825873642,-0.3409084612245259,-0.7116902650399255,-0.19063494434806705,-0.18101521240060237,-0.670181954766043,-0.9522139383516346,-0.7034375575623706,0.5273632709019385,0.3116586818995919,-0.37375039952148104,0.6301896939072735,-0.7957976808467979,-0.6318938978101878,0.43555748741015643,0.038781669139107855,0.28180351028526696,0.17366879327971851,-0.04717462149409535,0.27706725590699355,-0.8212802890885347,-0.8214553265845761,-0.27255431083101955,-0.6768151795539725,-0.22854039911947455,0.12078279683471083,0.16566573920865668,0.010162497915349622,0.81388473169085,0.1346216130593474,-0.07703922762560866,0.9943943250143588,-0.5599628228496307,-0.08898694484736769,0.05703492044992098,0.5814796031824767,0.42898153866549205,0.633079452024286,-0.5393733111359067,-0.047879559795330984,0.5412308037554268,0.8553872871164421,-0.027671973863290233,0.6512985847289494,-0.14522892026602063],[0.407117420754771,0.4903340310528552,0.9816908756879617,0.030268610181310773,0.37668938772084326,0.30773272043502553,0.7259761800244267,0.4613413219413869,-0.9501797244838168,-0.7184964181882272,0.5457474959105326,-0.20450937374856215,0.4323687771034619,0.7822585614780184,-0.648282886992416,-0.34225711498374967,-0.3914505943495623,0.46955958549578547,0.713188926426648,0.6475738787003409,-0.9390265807467735,0.4461420590125331,0.7065516455577847,-0.28046554378346533,0.683984355904431,0.933349248846779,0.7188391657320476,-0.05566517667119575,-0.03247001858365817,0.6066872613741778,0.5280858184265149,-0.09119856877031429,0.3026533289477378,-0.5514359664953141,0.8261757996796883,0.2767504339801361,-0.7649013207001496,-0.968860925614599,-0.2581748337260361,0.7721313832930727,0.07735376598418098,0.4891233049863075,-0.9523224370514898,-0.5446399424373207,-0.7790040670844434,-0.810177745018589,-0.8809864416313622,0.6128751868580533,-0.9251940763998245,0.39710079618767535,0.4627244477082533,-0.06615007072518919,0.6290414596110523,-0.8906336622751763,-0.08069690241224947,0.5210239243637496,-0.6965974403467681,0.6652579766316937,0.06846749334810154,-0.05610653273095023,0.9635346040864863,0.25736049139930905,-0.15496725630487518,0.23607404802514464,0.1805971640470423,-0.5476103497953897,0.3740820895020933,0.6706054842221483,0.30272361313134954,-0.22815488126740746,-0.1329885324878588,0.1827682511252,0.9992897570702794,-0.03980539513637815,0.09233309223331299,-0.2289420184523916,0.3310244709605721,0.8592558252329594,0.6736880704713712,0.580246911860447,-0.8517732484907468,0.6623203870625747,0.2977722586473406,-0.21387288880797417,0.29474864082484187,0.06996519287890779,-0.24730603668063722,-0.7567493994193675,-0.4491843637240902,0.8626441283005049,0.8281124244312794,-0.7456202142818951,0.8954136929700671,-0.45077381621359613,-0.4383463978666562,-0.5522777504238765,0.4113580678164701,-0.801478486038973,0.7397307039989118,-0.7703919758571138,0.9759939304841905,-0.44878467265203215,-0.1102161896148246,0.009699514454383884,0.6378431632078181,0.7399875057701064,0.2752043420144292,0.9930871749067145,0.5201446103771059,-0.6064629407262485,-0.747053667278935,0.5202030694706115,0.9361877638292722,-0.21084110415470025,0.19759203084987442,-0.9325716598810723,0.39251330852276967,-0.47067428253579324,-0.8653574280665652,-0.9653648523753322,-0.21739567678944915,0.5401343455364898,-0.9116867387093879,-0.8906472292077772,0.7151879940423695,-0.4191912150578214,-0.031810780807494776,0.9218816233124247],[0.2569737547253781,-0.2790112855100597,0.21421036848413344,-0.5790040616367498,0.8738649499813231,0.925315182922192,0.08775677026240292,0.09032749269954454,-0.4120189436118533,0.9121056091487301,-0.8134413584032472,-0.8313989725065558,-0.09269607966744209,0.772787931712525,0.4418695403996211,-0.3689763447006511,0.4212578215010403,-0.38326223578921415,-0.11773215610856802,0.12218873364546123,0.1213222600445798,0.872291788007209,0.8044883076561873,-0.9731471443598378,0.5545513959856914,0.9358029834562385,-0.3307315366350809,-0.019795686857972505,-0.7976634043880413,0.892460724969776,0.8129057919985114,0.5429787334913625,0.5308248833720279,-0.08664072807474765,-0.8278380324341881,-0.956044339334936,0.01759447335532327,-0.9224692452258534,-0.37018445581815707,0.022263016234826516,0.8465102297425839,-0.45647187990262417,0.307061924154322,-0.5731048989270473,-0.1574995571319744,-0.9265934637869817,0.693793470492543,0.28609119840828345,-0.6039618711155725,0.7032216304674526,-0.376544081142681,-0.3526428275995577,0.9799179737311134,0.9702134911159566,0.5566803868979724,0.49722731559998046,0.30421611487999733,-0.2205542376568026,0.030295914812814573,0.02843079299672313,-0.314605392544296,0.7474241365687018,0.8250049068923921,-0.8217403582403948,-0.14491123083381563,-0.03285278385554191,0.005442043805242935,0.637204448658824,-0.8989018520320342,0.08696444925924096,-0.18875530359241433,-0.7645015839234062,0.9373916518465784,-0.26434857403689804,-0.4233651458239467,0.6526872556922108,-0.6685727386208922,0.8243458423644681,0.9378481468996678,-0.11369410065091179,0.2222283082398664,0.7601094360313754,0.38714070312316595,0.9681193038629003,-0.1975555002567888,0.6730018364959158,-0.9800089130980352,0.20237143086287146,0.3411517597371305,-0.11254948018743338,0.2575820635728556,-0.9517176530717215,-0.011994398545375873,0.8913942670983945,-0.9484671252170398,0.029248825505457265,-0.23125555435864698,0.8532297731673251,0.3000457670685259,-0.08073204850388027,-0.4909289899364788,0.9104313254746121,0.09696202891479144,0.7709404475111024,-0.20925353845649353,0.003768689822194471,0.9266319459702959,-0.32972761693291197,0.7023028086032803,-0.2141366221726564,-0.07010226468048497,-0.2798005791892275,-0.9834324929709788,0.6481799006223352,0.6590614362690559,0.7340676443355072,0.18017664433066294,0.19559379287591794,0.36836376902552015,-0.7670282907869885,-0.136159453168065,0.6965512432251586,0.5801297407422221,-0.3588556633615858,0.8032852397407839,0.22238210654300072,0.07196067606566059,-0.7046927953572419],[-0.26037997469715046,0.3777399732863804,0.19284497794167876,-0.2111858613747497,0.7405257546962787,-0.19282725692252312,0.4705257468251478,-0.8052650061212936,-0.8474496087812251,-0.08983504779604878,0.20397519796605845,0.2222818014283594,0.0749946981124916,-0.5472971982345678,-0.7736819567039372,-0.9993192804266218,0.538437567688459,-0.12374789562933808,-0.9023199749567565,-0.07411145217164483,0.7011629675864017,-0.2947578528211201,-0.9957691399030146,-0.02458688050126412,0.6794072786800904,-0.9706998673035314,-0.6800813695673558,0.39660778079658643,0.11303832038305206,-0.7610380331377495,0.10172369882372045,0.9106243616992251,-0.824360981636505,-0.601007742900538,0.19906490675789312,-0.7535207961766925,0.5632296343173939,0.5086763114938453,0.32211223262622823,-0.16667198897270463,0.17488606827936648,-0.1140378586146662,0.055704444780515505,-0.9864308908773127,-0.20529940431493365,0.13559793436220735,0.04007159337403143,0.2042466535881151,-0.9911462979807713,-0.24856853936050083,0.27368039083098683,-0.05259043497146765,0.23968345386261447,0.7557709285326286,-0.3717832132470007,-0.4056892425052494,-0.4539305329139549,-0.9896759906348835,0.05095452274817758,0.9818140216947122,0.6691626743944923,0.29740799786817007,-0.6673468713336064,-0.052475223502653545,0.2779442170455648,-0.1667184774399093,-0.5803439649299609,-0.12132282610445833,0.2600505096134009,0.2950440542381867,0.8111276359934512,-0.5823952039819895,-0.6796026270395217,-0.2946922125361535,0.1093785737371773,-0.6711244598285684,-0.7526844184001016,0.9442491060386229,-0.3543832992771172,0.769295759523335,0.16757253339355138,0.36331650013131567,0.22169557919089833,-0.7825419519064956,-0.6406627499538962,-0.5135400216709054,-0.20476616319273733,-0.6172551108045363,0.9004792333189169,0.3616713117387551,0.001390901526583832,-0.23294060277938078,0.29749519013672465,-0.4512108545548994,-0.2399569736897358,0.9428009687473788,0.9328690604767282,0.42243831776252394,0.9950405938121811,0.8078936768220584,-0.3421377427851753,0.22836474925333228,0.570781707766832,0.6895188209251075,-0.6589788841816362,-0.9963524457296069,-0.4783631776591242,0.9911555614579157,-0.3595004250476528,-0.8231440246793751,0.20157071816320693,0.2727392143842593,0.4861754226692101,0.3122300460410141,0.5056144832421552,-0.042812081265546365,-0.5468479393079302,-0.4336993610725788,-0.8916701081850427,-0.6799119884606615,0.07900445091092756,0.6717263377468643,-0.2711710904928504,-0.6660576741569475,-0.7377325683879392,0.0368088629085066,0.5994442492850824,0.3210572908463152],[-0.6580994050952409,-0.4373237874402056,0.9981636069906434,-0.5543182950556256,0.7519660355165598,-0.4782269936788883,0.7099233794417166,-0.21574449868958823,0.35462834299173673,0.5262272454456731,-0.3918661736806919,0.13769319567505844,-0.891742749534219,-0.4357633995965662,0.37479970800253026,0.3496883614113404,0.009065510774120433,0.7748229045206876,-0.821746478943719,-0.6916525787239585,-0.3466407339740085,0.9731139022348718,-0.47287156028642663,0.21800879023032005,-0.7864194477090156,-0.49593955259342604,0.0923449546182602,-0.060626101294548373,0.12013923800378468,0.2918127347065065,0.8073582178228795,-0.23365709176058758,-0.4962266038787262,0.6290938732348512,0.00031854302403644397,-0.45312641053337854,-0.7367990275180438,-0.03802391940053074,0.7222124402315111,-0.5295270426018477,0.4077568840878132,-0.5581632400597583,0.5750735449955622,0.1256485888993888,-0.26092695531911225,-0.9491212888974014,0.005945884477940311,-0.09969569231707309,0.8572914882251652,-0.9701705897762514,0.48058469957849415,0.6599694287106144,-0.7021798343453138,0.530433939311977,-0.04480180170447978,0.49312353760020633,0.9997294495479387,-0.6054123766645203,-0.8305173285515428,-0.2859839235145474,-0.7317511024861161,0.6857341965333874,0.7952912006284314,0.5999469745481707,-0.21992634435228497,0.9331691034450635,0.6990001926460128,0.6889309791302982,0.5269424339236992,-0.35421626832525455,0.14673042583871032,0.986356554675083,-0.599936157706868,0.743831651518609,-0.4621988154596015,-0.9898105611249886,-0.6387425850597812,-0.5951201649031588,-0.9090547354039384,-0.8535246450604395,-0.9138676951487978,0.5803477353804145,-0.5452187103489496,-0.07478653818706382,0.7983483471153021,-0.4801257077257346,0.15180855228889545,-0.6525683425224873,-0.9230035033049337,-0.5043780553851542,-0.33245983360983544,-0.10585568058704364,-0.1651081313646907,-0.22804296539973645,0.7200512478317451,-0.45540094811832565,-0.08177115387295908,0.016976283927551794,0.9171087767733082,-0.37545198877844355,-0.998568599358459,-0.289045314423209,0.741921311102911,-0.4423146819838393,-0.13306213227449293,0.684056041859936,0.4776859324064242,-0.9763304203066476,0.5344914144703128,0.6203641966197848,0.3506938590494726,-0.25607198784324536,0.9387397877375299,-0.39615132440277945,0.640811539619103,0.6420448547077635,-0.8404040147825307,0.42257152528900743,0.9025085736002647,0.4837882448894568,-0.5236324197027122,-0.00408864167143852,0.7556702226664456,-0.2150783578552966,0.08367229854057445,-0.9902300987819581,-0.32299211866641286,-0.08553859321847668],[0.12928424551618978,-0.9163459447450095,-0.6044350484412817,0.8141488583165977,-0.457874149128362,0.9735041426391788,-0.835679131590922,0.22330318859522214,0.3609707724873923,0.639394495137084,0.058943979822767556,0.40278479999160677,-0.9477321629323336,-0.875154559717199,0.9500269748392371,0.5879688832301309,-0.7069158336554024,0.6862597997185742,-0.7055855170048786,0.4728520652208834,0.07962657799472561,-0.7144682237592992,-0.02355293719627216,0.04704806065271461,-0.5818212484045824,0.7720425886267503,-0.6178975331259355,0.654493572179184,0.2364803528553887,-0.9570123478689747,0.12491371130823303,0.2734773545406872,-0.039972701930871324,0.24581701176749382,0.9303252869297993,0.9759291601695215,0.42155808027839736,-0.7751223241564795,0.15480094675705258,-0.8728695815742884,-0.5789619177172383,-0.08684913696404584,-0.9709867810009909,0.3596672651955859,0.9862032714467173,0.09992310122499548,-0.023528801231516017,-0.4863827959305702,-0.7528762492478118,-0.5954045226460076,0.24340693961101678,-0.6316653454705814,-0.7875054672431472,-0.663567037297236,0.021886992203008937,0.9293821744237101,0.41482585774051683,-0.4468741369199605,0.3478268080515474,-0.694950627850913,-0.1465189692650437,-0.04989380793916798,-0.7688147935960794,-0.0971488732794179,0.455105042597741,0.18611674965422376,-0.09192339176112974,0.6278489117552977,-0.33933044880536745,0.9155560601401627,0.30037475360904686,0.7959706099942712,-0.3239888948470093,-0.8057645152103747,-0.1574790128047412,-0.7204064570740041,-0.9633859873797173,0.7470581466112445,0.608601352980584,-0.7023860920416962,-0.881886269079637,-0.04018346605426615,-0.4736737696382538,0.21710434771335008,0.4516650152108852,-0.502697678524092,0.9030913020817355,0.9314134670677916,-0.44627803354276185,0.8190346593570825,0.4808557217275675,0.13664573817822534,-0.46199526621619036,-0.9687307312850888,0.5485829179310722,0.9174669304365168,-0.8678221370088766,0.06810675300744418,-0.5887919245334419,-0.04387741678635804,0.15671106689640757,0.1259201750634107,0.009006862725476683,-0.8685812932259114,-0.2855361005979038,-0.6217666903683234,-0.7244204800936922,0.12111749936248017,-0.31196714486640076,0.35911333039516036,0.0074576037668117046,-0.7644643307242398,-0.3776109651938633,0.2541313032090633,-0.03906498307078987,0.7669795084101962,0.635544130150373,-0.8791829980797408,-0.17270834017946068,-0.9128171375682173,0.7591155803783893,0.3944464554049363,-0.8849405367585841,0.6162613501310905,0.38578854615489355,0.24233505178119907,0.8667792683403617,-0.8445185701688978],[-0.8546453994878314,-0.4500458509837464,0.32771372520324693,-0.16280352627167627,0.4784024952966699,0.36167585138906766,0.6385735895451048,-0.8187085606511686,0.2556701658246374,0.4011125609784183,-0.41032306050730005,0.2047260721198323,0.4315618038671718,0.5199692095896391,0.8727973941890181,-0.21215098176024805,-0.16087082025751753,0.4412240309563056,-0.7076435177838665,0.3913085898666444,0.3554709507072902,0.3507341625613756,-0.4502486519248663,0.8343093399318011,0.34462285091346656,-0.33749411804135754,0.9423782828371592,0.8589370861985328,0.9787244574713703,0.4895204735217136,-0.8119839765185208,0.09075049790258882,0.6080456658725053,-0.5817901009649651,-0.8792746149700923,0.24123230956554975,0.7390576145058789,0.9794074866398805,0.41015782138977475,0.7963098699125877,0.6537228848335412,0.4936257688657455,0.2662662999615275,0.328524521752958,0.9153931114834841,-0.7325917509267619,-0.9007349352862777,-0.8914186624635891,0.4725870463769599,-0.6422768567508275,-0.5339351500290412,-0.4263631412278257,0.02992938558028113,-0.8400123428935502,-0.9386290158525603,0.4658359661769125,0.23277810373270036,0.6030592726100368,0.0019721544597426366,0.9299923726077792,-0.1594569414166438,0.535415493036107,-0.4131443761258571,-0.8138972294833087,0.7751717298859919,0.976864607277645,-0.1533221132748075,-0.8963154292874953,0.4914838969224449,-0.6581784259253953,-0.9852906271933759,0.6485974724786412,0.0885611415772467,0.8528231880396522,0.8285883781051631,0.22851529167972595,0.04376314828889516,-0.714937391832438,-0.06754163770365862,0.12497445647440308,-0.04140603347816274,-0.44790465766195986,-0.5025987590670913,-0.07932685609026269,0.2746648577534203,-0.7755122684875313,0.6734500915334727,0.01747734164849568,-0.833131252478994,0.12157084877503,0.3747194308192201,-0.059935010804324396,0.09372815151393832,0.7447884501817672,0.523383280569329,-0.38809100913924244,-0.224067464482828,-0.20747607159246062,0.24144258422611298,-0.7550604596738779,-0.8445695467785441,0.12316739884041805,0.25940710033626724,-0.541908006804448,0.35256343214865593,0.10856845453906194,-0.6198522891577309,-0.9997883464255075,-0.8450877336055771,0.3012851972682671,0.7342442057534617,-0.40467137904235084,0.2482326161637376,0.15329128542647874,0.3112949538103713,-0.711589320864022,-0.1907151000168148,0.351633770851401,0.7884965375774464,-0.7496894803874512,0.4832929309766314,-0.5452850685580635,-0.905311215705022,-0.8376111659311927,0.39172259993234215,-0.04576567112658925,0.5356817362733595,0.4368453113118398],[-0.4157612812170841,-0.4987986220650149,-0.15323963150999242,-0.7378501763603391,-0.6975847675015392,0.6598331512023061,0.6641643417671674,-0.09278095754417093,0.008277922939760707,-0.3363214415601128,-0.8617170412944635,-0.7744700074030839,-0.053904424928001404,0.3628401269315189,-0.6227035754001355,0.5150226055074247,-0.5169172767104722,-0.005097266863654859,0.5385533630694508,-0.5062280851266379,-0.717217952075027,-0.9988491282405927,-0.20476263587714527,-0.42809529895023957,0.7315363747642225,0.06006171102683133,-0.2825045569182847,-0.8420596641300966,-0.7124768689530088,0.021143602491524582,-0.924508169465299,-0.8894840430283932,-0.25675526942923277,0.2625818109214717,0.10155569226973782,-0.20108883536455835,0.27276284278536345,0.21586951524163212,0.18838325266764722,-0.9867777805333162,0.7709208680332917,0.7558064494623018,0.2610317799069506,0.9580725985180001,-0.9817961811793432,-0.5263112146959914,-0.5801513089943406,0.4951888830330864,-0.28587321777366137,0.8112440145212481,-0.5577210149399607,0.1014777009516763,-0.7992864420484569,-0.12382986636705251,0.5693012785933007,-0.9557600642385506,0.9800715893720859,-0.5537725074432731,0.5900898127855179,0.08943187622597382,0.1215567136736575,0.4547893393723865,-0.5070621868319733,-0.5075228864766288,-0.1687453917438484,-0.09711940133445829,-0.3771359116760187,-0.3677319467328304,0.08935989825114454,0.9852829328870074,0.20394872079171744,-0.39546223599447394,0.2010455864954781,-0.051175194174450045,-0.24020802831946186,-0.167108190537125,-0.009110103326506636,-0.9236674033599281,0.10841917520395805,-0.7603627196157734,0.5113127997546165,0.1909726333668793,0.30469703489182276,-0.7188558312588662,-0.004441980669238177,0.638217103797821,-0.3347001113299335,0.011004215052803357,0.4376498277001577,-0.5646300177674233,-0.9024485314656365,-0.5581731765580433,0.0871693490521186,-0.03403335064275703,-0.005714044177954403,-0.8348769976190233,0.12539052443386778,0.18790414662895705,-0.4778625268205663,-0.7200682227959287,-0.8228961306929676,0.9694356409962408,0.016972400777188756,0.20185682915370773,-0.1260594239899695,0.14336118504767992,0.453502960070129,-0.9499182270490949,0.36022235685568305,0.9575501260242842,-0.03851790762850804,0.34580521077351234,-0.7026567595394742,-0.23685528721052762,-0.931467697590401,0.9616004400836409,-0.8438415823744996,-0.018348316371178175,0.3482820417795316,0.12587052693806688,-0.00683706664153938,0.1560550899979969,-0.34629613227097433,-0.5769567578566592,0.7982364926955561,-0.9936361751962659,-0.04621085812080317,0.9634827390186569],[0.483711126707683,-0.4259694488748029,0.5816104997707949,-0.4904225448173203,0.5423544180829483,-0.9120639422209806,0.0678790273178449,0.4738414877489303,0.6362628689075946,0.5693432439286727,-0.6364302122081815,0.7187359906627133,-0.6200511997279099,0.34050303770454793,0.8334659203864638,0.7702666852951765,-0.302646561096493,-0.5551184386303434,0.42023225545237386,-0.7874964270418277,-0.24494938705057656,0.8332265775578698,-0.4680405127976699,-0.14761930362674835,-0.0009843494541121878,-0.9285874107101169,0.7464636950447625,0.16485125170448356,0.5301514950475004,-0.38026425839616795,-0.6695714827920338,-0.4846241130176212,0.766073593586666,-0.5182970479899378,-0.06764396192061461,0.4424841276939575,-0.12686571458979579,-0.7885721209969665,0.09329104342764483,0.4656918453816612,0.2645520136864059,0.7709813051936227,-0.6267105520654535,0.51283551454457,0.3712604659610186,0.21660565360938167,0.32667508528053313,0.6895880495929432,0.10408711133129467,0.622686053287306,0.9159337802407901,-0.07830970041476748,-0.9199589388657246,-0.9088593829165674,0.5826994879219374,-0.8659635036315132,-0.17078859953456726,0.41868419816021785,-0.48452195682454846,0.5578773496841176,0.5992651676327041,0.6275052684874907,-0.4996637432572322,0.3528745746721893,0.6318378559152982,0.1477025460394925,0.4815068241654221,-0.9862393899562831,0.605385170427204,-0.5920426915100006,-0.041692134098032074,0.8587712379601964,-0.6223841541791648,0.9538655650164083,0.30482254669906794,0.7618512479541732,0.7616595402290551,0.6695789893223583,0.7399577894110703,-0.3281740257651018,0.295074506247353,0.7847454736823773,-0.027732076338268907,-0.4279325444076405,0.5165896334993718,0.21302987671083118,0.9653755750415769,0.7645083675693654,-0.2375301161570511,0.8019987110904054,0.692928880041551,-0.5195009674975881,0.7183993447321528,-0.5290210598722247,-0.5379653306516214,0.06461037619690524,-0.7826708175999162,-0.29763179044249366,0.4927644703003038,-0.2397121119839456,-0.061546886002609824,0.6781281973337254,-0.7860842443110858,0.874885114205119,0.04375349079930002,0.1293308687466812,0.12953079259072364,0.296327745511229,-0.4275695120482772,-0.6748955797301552,-0.8695629980266526,0.37034477878576144,0.6917973527227268,-0.3037230531189654,0.6164775634959883,0.8656171497274268,0.2188252770804584,-0.4272367399006112,0.3255668850560949,0.8596673151097143,0.8635582115258607,-0.1733275863193473,0.8709524647653222,0.6050647011497001,-0.6229829617820242,0.6871569554947206,-0.1797975159323002,-0.3248086186201391],[0.40950236796233996,-0.8527791429283993,0.5857554490536834,0.8752296344819204,-0.9672629248337659,-0.637177740894181,-0.38350215120141007,-0.7534550436851668,-0.8820828511946073,0.7496437574063117,-0.9319966208730817,-0.21597368726149702,0.2634498601187705,-0.8248658594351141,0.1488664493523344,0.6709469114614683,0.21763106920454423,0.9816428903599963,-0.7239050221031205,-0.06731971206653808,-0.7047115694979706,0.29215239714183383,0.8170374410613537,0.3474898054673221,-0.011629765457012997,-0.873277482807775,-0.8130077185708111,-0.6792017977249323,0.24402871901470125,0.7313574363324014,0.0031723405940260463,0.18360109113197742,-0.08878078752216823,0.11284194637485712,0.46845322954126534,-0.36371364727502753,-0.0232623596590118,-0.42171659465635924,0.4448233991258719,-0.7811033884700391,-0.66505418884879,-0.26743068255195457,-0.14021251249172373,-0.8534137894962535,0.9001759439346846,0.8685355324705242,-0.009583142756356189,-0.11002352832608242,-0.05112541619754474,-0.3917903254920825,0.20158879214743974,-0.014867624221513775,0.22302138374284697,0.47629985063466673,0.20191090707051496,0.09049598754106292,0.4535268920018676,-0.563235515264596,0.8406561375016595,-0.8038430759670905,-0.49456579778283505,-0.9508744777407321,0.9391984332330003,-0.7249105299987453,0.9794887674262536,-0.8159663414506904,-0.487198669978095,0.2918643834672072,0.3652256226903665,0.42631977560031675,0.8469455132969048,0.2844750867827792,-0.9489902718696523,0.9776986537462258,-0.6569645849133621,0.4106329402506317,-0.6129382411728326,0.45962911827429886,0.5530677564264042,-0.6798957987671423,0.3900738655294105,-0.5911832626423474,-0.8764520786580459,-0.2930056136295991,-0.7864777306304869,0.6460308019140357,0.8101134731704338,-0.580383538541188,0.4583362123761603,-0.7597068381780003,-0.22393041174924688,-0.18341443960508297,0.732764920310387,0.9354265359671894,-0.8372418297134869,0.264996828985542,-0.8286744050435995,0.187114033810154,0.8566700068539737,0.9193991571479012,-0.9772350537806207,-0.3031669422398151,-0.44100401147024604,-0.6525656704169438,0.910726934115055,-0.19899970439552694,0.4412227072031527,0.4561840040642364,-0.06114185397289473,-0.3431683570531425,0.5420570162733327,0.47819737742534807,-0.30077597327320715,-0.8871369559509574,-0.18633979574849402,0.7979227308757344,0.25295786410052434,0.5496140719455314,0.6615099185920181,-0.3844360446114541,0.730397052231587,0.4243700857291737,0.5719884951639957,0.23776099182540067,0.7662488718497453,-0.9691315893660102,-0.00976452310183129,0.2590615415088702],[-0.4933128864445835,-0.1642586141792286,-0.9280228288113759,-0.46392460976061,0.8166696178962738,0.6368662096292295,0.41826952669978956,0.7602838327794466,-0.44269750681731956,-0.5786021761986562,0.7452916333000275,-0.5078792978008457,0.5675523665177931,0.18243083451622688,0.7935165711013243,-0.4233776973308552,0.30563856219051155,-0.5800757752093011,-0.2896647972986086,0.4858009377598762,-0.01271281147675607,0.7796190117777959,-0.1590418906955846,0.7771888776502083,0.7266357744676633,-0.06577532559376387,-0.779383966074505,-0.09791371890542999,0.49714274789171853,0.7065932961561425,0.09876177596724034,0.803219243979922,0.9647628228075091,0.5913037863697785,-0.2761825505127429,-0.39739016241308445,0.5052847426031533,0.6801565536311829,0.6672579672114614,-0.8190049926735967,0.5637068845299011,0.5185349260659917,0.9774801651029006,0.5853853129545374,0.5255608453535121,-0.2776652966967066,-0.8284741539822869,0.46517013203783497,0.8345430536870624,0.6047796273550823,0.14042179869422267,0.720960021806508,0.8495387146711799,0.9079405709734591,-0.4836718192171361,-0.48560524734927224,-0.7761711781830547,-0.33072184691619855,0.84088507544493,-0.07307296183302059,-0.43490914504491407,0.8374831283138771,0.34382010939722196,0.928857253704356,-0.2569071325102086,-0.4952531405037117,-0.12180246418972374,-0.7795776903891265,0.2749480748871518,0.6331256460896197,0.5830225279623718,-0.8816461371750908,-0.6776442706875194,-0.03531900316576131,0.958949722839594,0.2403562357932434,0.8064984113671931,0.8392123156949487,0.2277878685571446,-0.44016404270986165,0.4531691973154013,-0.5839791810955748,-0.20874073167617047,-0.2757065177925391,-0.8531181409515591,0.9078945464476078,-0.6321771648498506,-0.9954688887040848,-0.4840115480643701,-0.43591498334626344,-0.13971653194367617,-0.7060334649337703,0.2045459314972038,-0.23500302583474353,0.4426832827021112,-0.1560133199486864,0.5102381910003193,0.0213585346465881,-0.4105093399963988,-0.8249490562303237,-0.5769974186818567,0.10985247629045736,-0.2870285777255721,0.8126464460861813,0.6886416481696775,0.9516159984602992,-0.8063451711701082,-0.4470570909269589,0.11870117601503027,-0.6499293099906542,-0.993433800373213,-0.16829126474732403,0.09556005019563374,-0.7345624494208525,-0.16003709449016235,-0.32700345258181907,0.7483370028738916,-0.030926236971498433,0.8989651955853537,0.8073385733197278,-0.9557545018095612,0.5439339050821239,0.5979960083394125,-0.42138808676301087,0.5225942771677872,0.29123095951536104,0.65211908971742,-0.2958254403276577],[0.9138686545810137,-0.5858646584000096,0.19848831796739752,0.4231243378120211,-0.5160741631925823,0.787521704174639,-0.2574385346928336,-0.632811646204217,-0.5360857737907065,0.09969272523899075,0.08081441929712918,0.888538829171861,0.21298000275174322,0.06903311813733648,0.8047778500113338,-0.3760039507913615,0.451000706670583,0.8270113763811544,0.5597957594097411,0.5280370543851198,0.7756457100387744,0.0549596919084796,0.03602287253635339,-0.20514168761511575,-0.0893667734403798,-0.3709692343023807,-0.6316373244148159,-0.6595887353753103,-0.9439120259121849,0.4295853620999104,-0.00654558933239846,0.08564597660442308,0.4350159787029684,-0.07704465511937908,-0.45472681124329384,0.4545170159740537,-0.3848231571301337,0.47173864482494876,-0.5274672967917531,-0.6937774055111241,-0.9525360787702191,-0.6290533408964625,0.7979495071750051,0.17857751205110128,0.2416262459781624,-0.14477696525208383,-0.5592759140283006,-0.9119254664092953,0.6822695475825844,0.6445512907316031,-0.021183378419920462,-0.44209530146223486,-0.5690791485512787,0.2236335099486868,0.9426973640309555,0.7695819200446334,-0.1355253564654446,-0.2794325797677817,0.9690308110648052,-0.8117585851190738,-0.6369433902085371,-0.9792141422733538,0.8123065933177713,0.7037513845289292,-0.05555223758780192,0.5309152725289898,-0.6594041431731834,-0.5491931868243594,-0.9820394363480642,0.973417229369999,-0.5357239789100641,-0.83884529458967,0.7756351945200537,-0.33214816210641107,0.9043694194045222,0.3199014796866875,-0.8003427360723148,0.9463508803111251,0.09714947339416291,0.5441288211563298,0.9900912562808912,-0.9731978844390343,-0.17117772273319298,0.46498699764237506,-0.8976142736756598,-0.32894161019364443,0.016330446032805312,-0.8560226507267696,-0.6433694978600575,0.5735433014416875,0.9005625467184033,-0.0852896429374761,-0.6794708526294522,-0.8953241543348245,0.30824935723547897,0.5119362879405331,-0.024975752231559678,-0.377259028147368,0.6288370816246771,0.29308634465211725,0.7921043789172906,-0.20165964326470043,0.4987328616173645,0.96081236295124,0.03939837231426768,-0.25062701096004014,0.1916976593550448,0.8243797262252461,-0.8729998159197887,0.23572478434850108,-0.7243417081001233,0.782487237171773,0.06698568160506069,-0.1054172234291797,0.49845249007369175,-0.7691820107577656,-0.7302912466557951,-0.8893708724948612,0.6645257413763765,-0.5691101737275246,0.7655055558577599,0.6684391529577529,0.9070307616309994,-0.49230947958517834,-0.6533323296086442,0.9274538998338726,-0.46874174576992633,-0.46163679065729957],[-0.6850547835597345,-0.6402271871042289,0.07517279662111509,-0.8809440949148564,-0.6864720149766548,-0.1661791078290511,0.5365806875835175,0.8405464342916975,0.25733317415130186,0.14287730416489408,0.8823396584816452,0.8616184116726555,0.13798941584785318,0.050828927551494374,-0.9059221491821545,0.5631878996427702,-0.07878835316628985,-0.4983761331181573,-0.684489699321484,0.3615078386584174,-0.9366506205521778,-0.03844741239205973,0.2857155423756774,0.2649141535464281,0.48251216925587936,0.4209522398143246,0.7121679364186622,0.9568377925899729,-0.9401106471355503,0.06142794532748708,0.5457449608223066,-0.23382136218374638,-0.7741175339280026,-0.8015648353685023,0.8615557959149478,0.18185266890097918,0.31578703356373783,0.8593971293226086,-0.5140279602510991,0.1919561109043828,0.8371272808908476,-0.5070616484868617,-0.29690562397827547,-0.683781550616708,-0.9691454298296427,-0.5439507795196392,0.942397297406353,-0.7187245124982957,-0.9695968932756265,-0.2464603711013491,0.5108048049369192,0.6360710714776525,-0.9153854596792481,-0.5450256154778574,-0.2862655113440078,-0.5413586238144461,-0.8719741240622274,-0.9020571351335684,0.04933753118890971,-0.27528719035416893,0.5964713308879355,-0.23062158852925885,0.5780564321840704,0.422229079111089,0.2621939252066281,-0.12844027344427333,-0.42806851192385453,-0.9549870160675642,-0.2514307320569591,-0.6749462005370277,0.5709213608408072,-0.3357692458180779,0.7165024947622172,-0.8985043742638719,-0.8152931323874149,0.07839693251779112,-0.9427944170370584,-0.7027858092289718,-0.843965483241865,0.3695780287876427,-0.4902679943184176,0.2033957135576121,-0.49095520924959724,-0.612521191388772,0.8751465088733381,0.7168078668040332,-0.1941124676819972,-0.7489610642465441,-0.01632732625321376,-0.3006374795861615,-0.5329913798099088,-0.9725598378522613,0.7290460812678967,-0.09641583498701278,-0.8737681519057996,0.7728184474817521,0.808330079267066,-0.7760462526114522,-0.6275353837361544,-0.8644013084804909,0.6125032758035536,-0.3957000799561974,-0.7952118878854937,-0.6829341650209906,0.7517122799613558,-0.29024611184712423,-0.36953403584479094,-0.24316396327718337,-0.5024552196389442,-0.24264758848836587,0.07423110946240952,0.24752890213849277,0.2876290557848771,0.6665096117001745,-0.3892869356394586,-0.42653731805143513,0.11741889295614483,0.6136589133409371,-0.5049365769740315,-0.5972471811136937,-0.5940365203214046,-0.6660050947843446,0.7679614978634288,-0.8034379914015166,0.42472465077803845,0.46088029960774435,-0.3008970414541299,0.07828936868110503],[-0.46114390389972026,-0.19567452909921057,-0.8319911439453036,0.13727519186592474,0.8283196520834699,-0.960230709507214,-0.8919000897766352,0.09082186536793335,0.8762532382949244,0.165457947778489,0.13491748669324677,0.9348735695263848,-0.1570503590305159,-0.0592687389379587,0.8391559057831155,0.14367842804067976,-0.658367795200804,-0.3918373696267614,0.5954722560509711,0.9059666265633921,0.6637980744474663,-0.299569488829484,-0.4109225811325232,-0.11997952833967318,0.15739743402772755,0.6244311737107986,-0.9690813196437431,-0.2866219064748101,-0.2965908025375681,-0.9399983818564754,-0.1279901990443375,0.5338396247417618,0.38566520306609453,-0.1495060680121023,-0.39554320194565706,0.48037829715467195,-0.6562724450017532,-0.4034176218599663,0.1696469654171171,-0.31593547910887887,-0.9332178135314226,-0.008757559691342731,0.874169254244944,-0.04852058662953462,0.5209453892922689,-0.4481217881842525,0.2685521005844156,0.04326757924586566,0.4568547286763258,-0.6351003485945905,-0.6416960423100306,0.7759763898607042,-0.9087932658036344,-0.5451369706747817,0.9398157092496642,-0.9532776404756089,-0.6832921903387414,-0.3984874770491684,0.3094102776860659,-0.5066340376999188,-0.07586957611068179,0.7112912110925715,-0.793290921285589,0.4727948885194455,-0.9262260587583269,0.8763906489083864,0.4724012065385801,0.8803860516434043,-0.20581623038674524,0.4321043811245029,0.34730589260311273,-0.7685944972143801,0.09442120604058557,0.04303051907121924,-0.05326069824064428,0.8506238612372758,0.28770999713780254,0.2628557473361415,-0.693988529624912,0.0005569519567076853,-0.7196832850164161,0.5334721577661727,0.9996388185459475,0.5882775643269009,0.465005769619248,-0.45272750522103644,0.45232969934942213,-0.011729834982670884,-0.029953066549536,0.8242692759539887,0.994545082470077,-0.43643251161087626,-0.05357246259733994,0.3409933099892517,0.24731142553601648,-0.4370530880516492,0.5483791992024223,-0.9720328918928529,-0.8594105650133734,0.05570592479464631,-0.07736495064764837,0.2892549822556525,0.5285208380967519,0.15681027127249125,0.8237306464175624,0.4229115948676778,-0.5175842317472976,-0.059283506157563615,-0.1092953162002499,0.7265867809008886,0.14199501013678217,-0.04417056827301691,0.1305049590316223,-0.20453487407478388,-0.9741261097005824,-0.21781992679345707,-0.12105319666158554,0.37053030351917515,-0.8883810475046356,-0.3756437461753195,0.3477325263711375,0.4746941026903517,0.2638591989182548,0.6007556485761372,0.11730262835180305,0.14843817139055293,0.3379725732425123,0.3143192683098146],[0.23977264766309148,-0.9557255799784579,0.9128879157500664,-0.37060317221355144,0.14968328865168345,-0.6129531988913302,0.4183368898745381,-0.8322251872185582,-0.5843227899129553,0.4951569132247342,-0.14304139474846744,0.361524459526144,-0.38990770477767045,-0.16627155719466513,0.7185194486246433,-0.22131041913351845,-0.8370209517587002,-0.15390345897785895,-0.9737769404459615,0.29138083230786327,-0.5841046393145835,-0.0943184163372841,0.5502089268858947,-0.4015288417193439,0.2595897128847722,-0.61349228317731,0.554334006006846,0.16985592450081022,-0.042692622400498426,-0.8800959881130153,-0.34989210320587194,-0.011038509219873927,-0.06062952651094511,-0.8286225616295511,0.478515104322323,0.6356075942004962,-0.44969149485096693,-0.2851384164103661,-0.04208936595827728,0.04305997921131466,0.46328431770491285,-0.8998062143904959,-0.15929773821070237,-0.2624682847808222,0.8292641340452831,0.8268578924035439,0.7192780672426902,-0.9752628291690297,-0.7730584719979592,-0.3588823562355632,-0.46260784954511447,0.22625030034644844,-0.05686649631950802,0.41729696201518296,-0.7664695231167045,-0.22637515184816248,-0.8547262135176155,0.7111100355247233,-0.8393080560050126,0.11534959202816175,-0.7711673908910766,-0.6503871089882809,-0.15664306797600558,-0.5880783912326613,0.03048367446414435,0.3814975031643346,0.4954151030244729,0.04999769652020758,0.14512674101592848,0.9138066470705986,-0.2125720952813368,-0.9533384835644241,0.6552263972597077,-0.8984952318968902,0.31727253621061857,0.3533954707608489,0.359906594913288,0.6840450359875847,-0.2496359110066324,0.7340491809306764,-0.6385386998490641,0.8143430012753763,0.5628736153753953,0.9143290121317258,0.7595400477148457,-0.11033573205101321,-0.9299877656794964,-0.19263932271483553,0.07369086780529743,-0.16368805877172932,0.34775836661673676,-0.38187252677125505,-0.6475823386503836,-0.18108247703384617,0.546018004583039,0.49224283004934355,0.8449710819769125,0.165327256547402,0.6426448032848571,-0.32349346393048295,-0.8172975594956973,0.7492927593338656,0.06956130305887465,-0.4492623643562834,0.18607863158461102,0.6969013294275106,0.5925174999966729,0.3589517465503196,0.10323284107728048,-0.8256236998513984,-0.31363039022122674,0.03815430906659367,0.19943697261452398,-0.8438937527885235,0.884230251723654,0.4118095248827993,0.17504687979665468,-0.5921773697396815,-0.18667178385991834,0.9072345868072329,0.42542413837285675,0.6090244200338062,0.7109455172929127,0.04630603184910154,0.06399365408933866,0.07931388167834941,-0.9598343305328356,0.9655927313510575],[-0.3764705591533515,-0.4475011600520755,-0.445967123272339,0.2536086143408598,0.01191744869814837,0.49294486540197235,-0.9213470923168505,0.05580596828579143,0.7294679436985243,0.8100761750653858,0.4384986188343243,0.1338457602027745,0.5453147709401076,-0.5382229239087786,-0.7954006447419366,-0.9047026214196614,-0.869437449885615,0.9070949336722229,0.2462433531527104,0.5468746855640569,-0.03539702201972439,0.1897971991455738,-0.672722150720487,-0.4686036206115758,-0.9211806282764838,0.8674344132677363,0.4545920781628112,-0.10183116066359332,-0.5940041586839091,0.9058746573975087,0.21939858427947545,-0.07624480700416969,0.42483076107037077,0.32822285067985524,-0.6081549690421446,0.14563942933754248,-0.06164697502376848,0.18596017122894315,-0.19080220882543752,0.9429071032758398,0.5063236653135741,0.5925218944094759,-0.8974101485460877,0.15760095683180264,0.9651180231207772,0.2062342071492136,-0.9634439002222281,-0.033873582831922544,0.4683920787197602,0.35458932559795064,-0.42002407026384203,0.25990516516107665,0.7266793758447787,0.07029007814792143,0.14874047688978198,0.21198594647638513,-0.5420686726327397,-0.8244929986232301,0.856565417058007,-0.9307916284915216,0.6604161727619942,-0.37933288223122874,0.9690648093259764,0.4049146181649008,0.21691475455257958,0.1989611989785165,0.2675568168456177,-0.6289231588901121,-0.769231184583349,-0.7354478657565791,0.6544356193102341,-0.4251721542827953,0.20882964220751266,0.698535451901745,0.14719028865673645,0.04105229582517911,0.3586906739493916,-0.6867978565870976,-0.22590067338210984,-0.3328892901721132,0.035844254194184355,-0.7842550776821602,0.5295473009008416,-0.8753083128240946,0.5534672838610262,-0.043524336767199134,0.5076247419212021,-0.771368585674201,-0.44724807564150604,-0.13861388921731432,0.5912363260749878,0.3424730433407239,-0.023065301154759688,0.017969687086036412,-0.28943904703487044,-0.7143750226230976,0.11002324560081966,-0.861596648417617,-0.47049621083523663,-0.07376929652162323,0.08797496374842506,0.6907005660647161,-0.3544864640199057,0.18604281274322432,0.541026592430379,0.026877121885275912,-0.8696760324574173,-0.10323312776823279,0.6468366837818724,0.11782173727378309,0.41893265419992254,0.34763731710020496,-0.6448130117851707,0.10208345586204093,-0.4039316362015808,0.8878825167072235,-0.8689492520213924,-0.790448431207516,0.13173332324536435,-0.9957834384245965,-0.12528491054976687,-0.6668087785557226,-0.2686345346231196,0.5093812253625791,0.92947373757019,-0.6563095783729076,-0.299301262279593,-0.8643063576305003],[0.5650176206734914,-0.8233150174532238,0.19026572125286645,-0.19726278630177685,0.8128977032311031,0.9089199254308982,0.07263984259853196,-0.5782231605561226,-0.7686148572872376,0.46351541878042823,-0.1672637943512898,0.8609901070299801,-0.22560574883780404,-0.9515956536854708,-0.18590854378521282,0.21501778579749908,0.9680011350086786,0.11377762160086258,-0.3417589355151298,0.14637858460481024,-0.6935634894594744,0.14940837640571392,0.003166962651502736,0.24438561144087068,0.34392230507517674,-0.2308501440630364,-0.5100522183316656,0.0558643004759829,-0.6888936476239351,-0.7812469629986438,-0.872628409765071,-0.34648409493181465,-0.3360111498389937,0.22248616361162155,0.3609529498068538,-0.28835477552297384,-0.8454544777747044,0.1874699286425252,0.857543805572655,0.11200021618705058,0.020412654649292428,0.22852458203364678,-0.816829196473901,-0.5707762867572326,0.12687485082856753,-0.5825277384054393,-0.5057118888132122,-0.6729533337356588,-0.3391877989741561,-0.8193642102743208,0.3103325108048174,-0.5009392357659057,0.7007952350327917,-0.24282538264385023,-0.8350792710955037,-0.44395108254819915,-0.40369722397355146,-0.38676899205385284,0.46983951149125547,0.2308331577455669,0.817736574462355,-0.004052867780274916,-0.5785752216986397,0.5158146699400139,0.102083116081642,0.26878054748464564,-0.8016185256895145,-0.405454167071289,-0.32499813745063255,0.3405439126458081,0.21708831770759884,0.24012200430736597,0.5646543029698785,0.5397225804019379,0.48412434816772887,-0.8818703964478383,0.5269118413292246,-0.4537576348370025,0.039266351248225195,-0.6402478377501581,0.27724052263599575,-0.7981594608666791,-0.14557341490234776,-0.21480201181354674,0.7061178272072488,0.689587211845549,0.7737900923747465,-0.16443101900187873,0.3651533492574939,0.8420982803480501,0.16365166150380883,0.15624092218384922,0.2318896303321325,0.655067650166449,0.7893578219164512,0.7552513689620932,-0.4152418826819466,-0.9482513247833246,0.6273814700863176,0.400359010262604,-0.4601621270061549,0.8256731326993889,0.39740136117544234,-0.12925023956194126,0.15319831503018122,0.5610435560538862,0.2213518098912659,0.7869240634491841,0.6409053009911068,0.6205851974647869,-0.7216295611294705,-0.7557573434394271,-0.7811436346907832,-0.6588816261721844,0.24196902785645014,0.8553975449645352,-0.20641706318786834,-0.43396168891104825,0.3538266426693082,0.10062227570055704,-0.24193447768863585,-0.029306037501561466,-0.22103345532792895,0.14984334692600632,0.7777326284848933,0.4437922913811114,-0.5356992779542087,-0.29976466856502926],[-0.20360304447420408,-0.7038785567216364,-0.11609287447610894,0.3646957822307306,-0.6645436384794214,-0.6169555882453137,0.3551763803762369,-0.9754856533146898,-0.7191940418996641,-0.8129074060105359,0.8457810508598804,0.9114616057870553,-0.9050764843770511,-0.644607583112903,0.683898917235251,-0.5966847451230621,0.4955807584098122,-0.24056698589364123,-0.2644232506967321,0.6012048608613529,-0.057722111873312,-0.9406655543103928,-0.6979743599214956,-0.5209886763453047,-0.6421448679510737,-0.8653283103961931,-0.573914756550181,0.4892608160919414,-0.28307227424416626,-0.23589837116663803,-0.9223486893088788,-0.002181508087697015,0.31063623869762313,-0.8358448022298148,-0.2233143284253889,0.516427446575427,-0.8216579634331942,-0.9394407691081632,-0.8633146282029678,0.14448249782759515,0.5920301161510539,0.11480136870569657,0.9746345819097941,0.9212859939928935,0.3863615322340994,0.3908212097547894,-0.11818875030042042,0.3045774438845781,-0.29789052904553115,-0.9270477383802569,0.06673713774297596,0.9473556211382057,-0.39088362804756294,-0.19453625038929978,0.9518556177812778,-0.13158322693560764,0.047719971181706455,0.5278301637024918,0.7194470404745874,0.6796516863686723,0.15938344463456877,-0.4413247060912826,-0.13738733757600619,-0.029486814683292728,0.015629618717772686,0.2329155402090164,-0.9370636717711642,0.31574088121160404,0.5728887107116605,0.5341254820825907,-0.09158933786747747,0.5016506763012569,0.606808537484183,-0.9149346281825093,0.7366082901199804,-0.8502188254854017,-0.9983246798377285,-0.5239691287697532,0.5704119111003121,0.12049233401884152,-0.31989572813290357,0.3558772708526603,-0.3029976750552681,-0.07771861300320104,0.0946117966892146,0.47372419266298316,0.6915704982665489,-0.759176855015887,0.4944456751680799,-0.6735702675556476,-0.0811152727118638,-0.43830249113701125,-0.14264670035324833,-0.3571258857197779,-0.06452768269123244,-0.30204594448650157,0.27067650510639485,0.47804171476691293,0.8522262447524946,0.4694685751542891,-0.3851430120930863,-0.43078333654455303,-0.5715076469664377,0.3859259629497771,0.08277226719235475,-0.006700928460349864,-0.586268960230913,-0.36403796569222147,-0.49517127401442274,-0.038585086387197265,-0.25310983877131576,-0.10238591726859303,-0.40645089137842616,-0.5197169739782206,-0.5901989313246214,0.7781686583428753,-0.028605778026448814,-0.8960105008357808,-0.9723612195205065,0.3140999441467316,-0.6716462357619926,-0.5987241999889332,0.6852757473732161,-0.6857338428246589,0.9596149971260921,-0.9364517081439003,0.13187059954964298,-0.7912994600282532],[-0.6472553543488124,-0.24568959537923396,-0.3578662577971814,-0.7802774471800635,0.9916443086721367,-0.6933451241860107,0.6127846462243567,-0.665612276750629,-0.29559403793600536,-0.1826278935357002,0.7140931876533876,-0.29057123399218243,-0.046020511820313637,0.4318479519121676,-0.8734014356406892,-0.0629225219568279,0.9521070999064825,0.08984971575034306,0.31063862667974096,0.9152898429131553,-0.23581881520045744,0.5816358016301,0.0037661007100866506,0.5802718403797198,-0.3622407655964781,-0.9301937641161269,-0.03412005032927912,-0.8181265853017399,0.07454750447014913,0.4311142357907167,-0.9845058327785439,0.5478759863977078,-0.27042803659599546,0.5670684164785875,-0.7266865456020613,0.7187819987853543,-0.2920988459150493,0.8375998564723464,0.6362946935432165,-0.8913666683809343,-0.911033667656834,0.3710323963076094,-0.48614265970350257,0.8071630093419309,-0.532727810231143,-0.14952070986916466,-0.040002303248718896,0.7772743601818748,-0.008890413444809564,0.9686087131049721,-0.9119461640842603,-0.26244028020976184,0.4827842497287387,-0.7950971186157219,-0.9028642963412987,-0.17313969181047018,-0.9008923982336836,0.915872708204513,0.6946306540523217,0.3408695519445173,-0.6959087051055461,-0.8213451843930071,-0.32506217962470485,0.08726282004943364,-0.292248142826951,-0.013119066490818732,0.6016351969736036,0.4502461058493603,0.4800748320445529,-0.9073862889472957,-0.8675542712646296,0.3310686808882739,0.9626916066432867,-0.9634100590197101,0.7729850089193042,-0.6314411671363294,0.6424544154664238,0.29988917285538186,0.16436097148396245,0.6917714885236874,-0.5777369779002575,0.97695805462627,0.7184524694108245,0.33946551153073745,0.48714823915811367,-0.8975801242437735,0.847464173330688,-0.9157610128839364,-0.3121042859369356,-0.4244293911296224,-0.07439484460870105,0.4557458213658947,-0.5302353053757245,-0.37222198565867703,0.45013233079182813,0.9947633953523347,0.02949661487649724,-0.6266893564225966,-0.20983271937332848,0.6028233838947488,-0.7647286150007382,-0.3660668115449117,0.290583828493598,-0.9218945522652429,0.8944536137410202,-0.10425721747058025,-0.6781836357704303,-0.16210360746876695,0.9551388548595039,-0.7288337464411998,0.47456607622221236,-0.9060445855795418,-0.6593426213262532,-0.7897629165488858,0.7698578424499134,-0.2544895046771587,-0.3853225826325981,-0.9096331351304285,0.3953647535816831,0.6557317775630569,0.9792312645696559,-0.8536502756034148,0.44147332704824427,0.06071762553042559,-0.6135766373994413,-0.5783289640285139,-0.9839067398557781,-0.1869014800556914],[0.00910191256501891,0.054678354713202815,0.8560416496155367,-0.2273676306618171,0.6560171512510755,0.45758153084739206,-0.6475757914945643,0.7074931385045287,-0.6458900321736629,0.20201073403353664,0.25793292144835966,0.46036350932859715,0.8681902781175537,0.47608588006417385,-0.2801642269367921,-0.8554613717579924,0.6991077883861223,-0.7873032532893287,0.20430620795805643,0.5602842035303466,0.8784784505843048,0.8311321415387409,-0.9103295640918825,0.08921108623303198,-0.6035295252845896,-0.10262231990840931,-0.7838446239181223,0.6088468177230597,-0.8573184571896011,0.7025351582599497,0.2635103260003957,0.9148267631505824,0.5871941144968189,-0.6259679628403609,-0.005880925839445439,-0.19511527582157795,0.6826374077703683,0.5391744276464165,0.9879331403339742,0.1905497639265823,-0.8519963129419446,-0.14591410034044605,-0.3103570566549845,-0.03789894450645903,0.32621372736080056,0.28445278719260925,-0.5538398728734051,-0.5419760571531147,0.47373932515707695,-0.42366580685881416,-0.3311699321696011,0.6152457768083828,0.6257448897386539,0.0059153121907984385,-0.21687407335802034,0.5349269216117625,-0.1762204680533208,-0.2257845866814021,0.25977412905428476,0.651719109340148,0.40627736427660244,0.8565005164512218,0.32619880175445193,0.010501568413266327,0.2851850776463034,-0.4838316699047809,-0.10077104947185367,0.9965939061670763,0.37732082304783443,0.7778510267847802,0.6069342181317521,-0.17463057532868076,-0.33008624458181757,-0.037144356273359325,-0.6262300002026082,0.24073881863212954,0.26351739535171337,-0.8035387636053262,0.6312299746320624,-0.01849086182501214,0.4908747856774367,-0.8798664099667342,-0.09687047993948461,0.8193799444433312,0.04509881021407214,0.15391325819618862,0.982974271889177,-0.013622745751959542,-0.05601263485971497,-0.2632304794552427,-0.9106576014696053,-0.044556096741159124,0.880344034679347,0.8944543531174372,0.4623324219131151,0.0739690662857484,0.7991277762473077,-0.9474038095020298,-0.8336994743602175,-0.10678139175126944,0.6070937315549529,-0.7209068272757206,-0.39458426512157807,0.3336862963082652,0.21141922174052707,0.36965742605759555,0.021220139142011707,-0.061262766077047726,0.34284527738774084,-0.4025767746392579,-0.9641740591631915,-0.009820410677138014,0.5170115754248146,0.6589616320993583,-0.8412392119354215,0.9049652105863215,0.7357380927259372,0.3916200696030767,0.3046786291077259,-0.5202605335826047,-0.2676795067552642,0.3996901102274819,0.04725275244597915,0.31317725516875283,-0.2153317235269534,0.7844677344515647,-0.8545454567958499,0.2775677046160556],[-0.5045069409060203,-0.0031216837738941017,-0.9876427041557392,0.5177153910375631,0.9581685601359355,0.42490972439677455,0.8042780553970266,-0.929458534729569,-0.22887049871046372,-0.06497833494676808,0.053740400800628585,-0.9412472333808575,0.466823870917779,0.8757973428570414,0.5951658561407696,0.769037692209281,0.45659579726672206,-0.26685189661826714,0.45746883485234013,-0.8264553682552558,-0.7553427928056582,0.26970783983263935,0.12901906421314857,0.33361091530834264,0.6861014197430606,-0.39209194417992377,-0.9038272888177015,0.25930616323734457,-0.7257400617046503,0.6157158137267138,0.4352072126989399,-0.5406255091368704,0.07821942072508437,0.18066362274277736,0.9244637296368583,-0.6995229057607797,0.2856308116361057,0.20445444511399558,-0.6240024431437563,0.5285202056910796,-0.6184671490324729,-0.914559847095588,-0.786100356516966,0.37505117203918115,-0.9376884283511266,-0.10600715355215007,0.3753125123823726,0.2989872434452794,0.7296156391204796,0.01339029762228039,-0.610489266889588,0.4846060410289259,-0.5995114477132621,0.8568681188962022,-0.6717870338602396,-0.9009814755846239,0.6147105470318617,-0.016069471881678066,-0.2646496470548705,-0.8803240836168542,-0.15640348689090455,0.22053264879345935,-0.37994558306998005,-0.9790585471427491,0.8849455540203306,0.11266132010093255,0.8266514752822669,0.6122326049718394,-0.13516705378107385,0.7302337862471306,0.8360694281823133,-0.29387225572143105,-0.33294871074211585,-0.146104721061473,-0.5727481705918778,-0.6956273344921469,-0.09289159965661042,-0.06880947402932147,-0.9495971152828844,0.15769073872739847,0.7215841542937413,0.4286096083792845,-0.34892911292973183,-0.14297043511146112,-0.5962779398238061,0.936856904957684,0.9200280173858912,0.41110008090429684,0.5163170129930355,-0.5097188276342375,-0.3929291503622414,-0.27529139843480266,0.42376915298937723,0.8646123449679277,0.014496051992445302,-0.49391646709431614,0.9584460814454161,-0.8632946805197657,-0.0575991687903481,0.45897598879158075,0.5919098945923293,0.65852013715753,0.21088636430629926,0.11261934122866135,-0.42182293666106796,-0.937284040801238,0.13836737320712444,-0.3980517790260847,0.41715894068963966,0.3836165158570841,-0.46852153495887006,-0.27249296753260177,-0.24614108222906284,0.9224948393705374,-0.3075097065522536,-0.6162911358596479,-0.31200690410778886,0.3233625296805127,-0.007744894881079656,-0.9104724255592198,0.5850417004732531,0.48056709401269515,-0.6097542582348785,0.09550905254321052,0.5201247924455101,0.32410190239480574,-0.3826119555960954,0.9172237097422529],[0.852229764006839,-0.04494953478821184,0.6997602719175049,0.6102102824575915,0.6413409166184212,0.24856317403030026,0.7806214524202781,-0.3271007145735587,0.5448719118319487,-0.6255703601535432,0.2272905029994421,0.5075210202948903,-0.2107705540074858,0.9234975164525112,0.5985239443124013,-0.9213776134671847,0.9162538533985294,0.32666715097649357,0.27981567315562916,0.24020804907154503,0.6892606963754635,-0.6376129604031568,-0.9315621865901882,0.24940007300902822,0.9629677351769583,0.7588557056616989,-0.15787304782696454,-0.2204673502746557,-0.27230374034736116,0.9018072612122339,-0.999595956621655,-0.7089813145459112,0.3067306299336301,0.3208816452535901,-0.877674816205281,-0.6548114916457153,0.18360130864072755,0.3917462914687291,0.31453861100588076,-0.02697720479595711,0.5239234191878026,-0.5968097335715465,-0.08667671265745769,0.3682842034603251,0.165157868438222,0.42362679189479646,0.13586132458825162,-0.9914295317056809,0.4033305978925812,-0.1855268823255929,-0.23739249027307485,0.5179805267273938,0.6101182529536668,0.20933594426228508,-0.6685973417749658,0.6668492313325949,-0.4835131790734284,0.5522840786364984,-0.44741374059816197,-0.21491816223776583,0.9191884616204304,-0.41805318402823843,0.8783505705336192,0.3474273890321369,0.6430351742767013,0.7999746130194674,-0.9162530316269635,-0.5444133667716815,0.6605999212697551,-0.4889374527114061,0.8718193717776686,-0.83197790804727,-0.4347768553443543,-0.7383927138109518,-0.00370595730863732,0.5890633069085793,0.010680010299682241,-0.10929054745983491,0.9136679243978509,0.4184449198585205,0.4186692134621106,-0.8636693792281913,-0.9787953735094996,-0.5220431844640414,-0.5945625188829413,-0.7259885837771458,-0.561098060707673,-0.6691774861852768,-0.01756085482682801,-0.6807540661909064,-0.37517163631914396,-0.7251428924142296,-0.8920144131164691,-0.5813722355180317,-0.869113884374705,0.3328527359390394,0.2695088611401739,0.16452184125464386,-0.1677967626967507,-0.5890839592822519,-0.6756674129325866,-0.8524629920968909,-0.03484409961714974,-0.32138174799720387,0.2609235161914305,-0.2886796773310638,0.740137372943837,0.5232120224119319,-0.6921171590913016,-0.12037072607229415,-0.5128582924170586,-0.5178257343546244,-0.43433778403111,-0.5861932624544575,-0.7897619246753806,-0.22770349982599436,0.4403945807623275,0.6800844795404033,-0.12591433460366375,0.6553426785869849,0.27218893062318505,-0.5653600035324926,0.807234870409685,-0.3561950897804542,0.7152036267247537,-0.9183517661265612,-0.5938220303307435,-0.15875927904911213],[-2.7534783427858773,26.00694318315906,-7.3157601211214915,-5.200178210741149,-38.08866224012695,2.6663855801921303,3.032055722536214,-4.212170409645699,-7.084550341585126,-3.1964318127005624,3.037044410157927,1.634310834751928,0.3152880714098612,-8.486118782319075,0.9938807965550549,-6.179420248538553,8.485598934860962,-1.9952352411161611,-1.9038943998681377,-4.798685648886738,-1.9281246239600711,-2.239426978034493,-3.50684891863886,-11.545740987929953,-0.3371808647819656,-5.360357722384884,-17.431557785877477,-2.9116688606910444,-6.378702337156405,-0.05813644075126767,-7.928550189261111,1.5183291249951774,2.1428025845441185,9.375056067224289,-1.1497922109155383,-1.5469499815708452,-33.76976230252594,-25.394786329305724,-3.334779441811854,0.930684529620089,3.197238961403748,-16.37640056624621,-1.3662959470219556,-0.03132621735010774,-3.9297901313546695,-5.558221877994253,-11.313275451746307,-3.428111708239488,-2.6161175476506386,1.5773066847139914,-6.305667719302338,-3.0603590722285094,1.614674794046708,-5.525908307392359,-3.2794587627864757,-1.9005390915176543,1.4714058556663012,-40.64022266016809,-0.8693073181829002,0.4880292458163416,-0.7392495302577318,-36.384183575540604,2.2700831219030273,-5.433306556346078,8.739297495641953,-7.058443222685872,12.64511322679817,-5.0541929521561695,-48.72417332076142,-12.803304178159017,-2.556870518039542,-18.319976300788024,36.17036053451006,2.531511544880235,-2.945246587620735,8.59315460687863,13.17093488439662,30.47422514712327,-23.701552636054412,-10.732489873068094,7.381503696892645,-12.333647016966097,-0.02060480282975774,0.5990629091336606,-8.589212593889684,0.18238121229441528,-4.066919737026135,-1.999426144560878,0.7360099203499025,5.415767228084411,-3.4876011226042505,4.46474214462139,-0.43933011484336404,2.914254099112884,-9.122008069011581,7.479681337351524,1.1794382314417537,4.421535531224482,-1.5556197845250006,-8.165933384176002,7.244436916459588,-6.315119850522464,-26.247733957869713,-0.010662824462446596,2.226146600641882,-5.861644750057325,-3.1229826664020246,0.6886720347079242,-2.035542417998405,-6.459004037970804,-0.3496920755752227,0.6251668308880294,-0.46139188294933586,3.1623189018544746,0.9011058623028609,17.558416621610792,-9.556841850388325,-1.5957480019739885,-4.895589475391316,-0.13645846781924378,-3.1901106847018745,-1.7282003296204655,2.7265060051523493,0.5833903510459146,-7.904489257061389,-8.024411849144842,-1.7707221921626153,-6.2000202069908585],[-21.48683799981351,77.68645155971589,-21.977331923233816,-19.592816796477173,-23.121847970568133,-14.79275790415236,-39.1116434471213,-26.27887807097987,-32.68231364964474,-14.12914005129199,-2.534320095216091,-3.4538527082000465,-9.781761270844935,-33.05900965631244,-7.903173473954718,-19.00020510310059,7.023888105589136,-12.401608415017755,32.6209441458773,-19.35886724297767,-14.328136288654191,-10.180288090607714,-13.688931905130186,-48.159987566233156,-0.6517050534014781,-16.74332221751129,-24.421366369386856,-16.745810060826088,-16.149307476586557,-1.2314624418170714,-22.199056035127143,-15.138124886327281,-6.449010902928304,98.01478524727989,-5.4693751175724294,-14.322873250134935,-12.295882758318474,-29.54064093079347,-0.869502993153414,-10.77305422954095,-6.82937136474748,-18.07723716948192,-14.181508268004514,-8.213941723733045,-16.467271579163203,-16.680299043003675,-13.469664321978271,-19.467964510822625,-1.0768536410241891,-29.67840690506333,-31.517856291369313,-17.853760390906107,-1.0685656965011527,-2.045155374455961,-1.6928538067348833,-11.130387080889713,-10.128864092918949,-41.96870632260144,-5.92163057534599,-7.489172868202736,-2.2256797474621712,-29.189475269769613,67.49556508412908,-28.118786677439562,-8.024523871414397,-26.487080338881164,-28.185746240964388,-20.02479434892316,-44.22902480987952,-42.636941909859644,0.7983086948754687,-11.056988197093037,126.31157895497842,-19.220345261259972,-25.39499316041491,-15.38701901546725,-5.330602362272142,114.58438581934331,-37.45119875017984,-7.439104931346586,-30.75754042831077,-18.250426764655614,-1.086478044265623,-6.360329078730524,-19.130613280393327,-1.684678067308813,-25.166529192456963,-3.246676540259837,0.31575692243013576,5.769009205897728,-15.213802343847686,0.1069856080049234,-7.688230410862708,-5.237619793436373,-35.591618503723964,2.3449576688620026,1.6443608789549986,-14.342717596810733,-13.8157311023608,-10.05411217272518,-11.98724767590859,-22.303006764803108,-23.00128598058977,-5.808267403647687,-3.0531815503185773,-4.94739090318418,-11.895715992467514,-3.079158632250706,-15.815312230584887,-20.476956999786,1.7885074191109522,1.0431529237645942,-0.9673094407065579,-5.360100778857226,1.2420180362869062,57.56477842039883,-38.17088917688847,-16.335708510794973,-36.44323935113125,-10.3351236218246,-4.46587196801742,-2.6263526435080227,-11.76537772050095,0.36068175172124045,-35.36603769990527,-58.4508154666089,-22.285925498062355,-22.716865717961483],[-29.34692771464661,140.29733719288004,-24.946576480346806,-23.03698648717216,-130.60986169303692,-10.73940062136524,-27.201943323141883,-42.63025077902175,-42.00761830831586,-22.298677009585365,-2.3709401942181105,-5.233772777997937,-3.0889277604651078,-62.76981182288773,-5.690146566114765,-23.61110151162788,32.43102005602532,-16.22697923058261,48.172113273270256,-36.220784567267614,-28.866531472461055,-13.837103561390945,2.1043060181269784,-65.06523971496169,-7.218295822732616,-24.928747184724454,-54.41306959278212,-4.056655014375313,-19.438988210203927,-6.932413141574491,-21.552459815453165,23.788090199467298,-11.30630238440152,168.90044720111362,-8.232847568791495,-11.46619449366175,-69.85437208298117,-59.22654640429053,-14.257901029434313,-18.376847812019882,-1.085088757158852,-50.983769090420395,-18.055378518017147,-1.3980500172568444,-4.244902825388925,-12.936883444001843,-30.869306639689782,-31.00818100241577,-9.569348512070246,-19.007763838629266,-24.169206408288087,-18.86247633604734,54.28382126876538,-24.36137177980362,-20.95964187893853,-9.159328114215647,-7.157636109897393,-171.64560085155978,-7.839800655968565,-9.435430379645611,-1.531023774415241,-115.46878131370676,84.79539489542228,-34.24008074000381,25.652872587163916,-56.009784256658065,-7.234602959967482,-32.23713445740648,-178.21182917680795,-69.63797218452615,-21.04386949335827,-88.77780883891194,230.54482097803987,6.084545319612783,-26.217646471653453,36.094627609677474,45.11105245706361,221.35036604197236,-80.09372436643068,-68.753110628018,5.8384232530289,-58.413608348309296,0.6833192824882923,-6.645712955729256,-13.831401945568874,-19.716068217111122,-36.598165527668186,8.957940783653564,1.0541800317120402,21.51324779423374,-16.079759235177292,14.862793033651302,-4.0236224683270025,-3.493423797779938,-45.85618163093395,45.44673851002447,-9.26540757473686,4.8885390021841495,-8.629478826887444,-39.336669193560795,10.72406966368231,-41.898213302749596,-101.42411013544128,-15.929242921629893,3.845435297736672,-25.084989377514376,-15.338611256284118,-9.25317009660891,-17.82683478323908,-26.45427317082906,-5.742421793209605,-12.507259147763227,-15.984132575527417,11.272031632622843,-0.4529815047974255,126.22471265108709,-57.71842427762186,15.116780919441386,-42.726487185247365,-10.577454049054758,-13.549026111434069,-3.58646230264766,-12.830464998248173,0.7694634895601326,-41.29443604498332,-105.80406902499638,-10.481236225120268,-18.31740125633738],[-8.958770154533127,171.27659058608106,-10.258861393214957,-15.613215069966184,-115.61248175854448,-5.804178199241612,-33.66881926193986,-40.617421042867576,-25.66662727449874,-7.048272247952923,-2.2611450044211603,-5.871372745626008,21.6092737188497,-39.68926302060747,-17.84009254922759,-0.28224078437493993,73.48624408252199,7.338713785302845,64.17881031718002,-18.423525863359718,-14.398304860477314,4.635722880902934,36.73545320496461,-70.90247183799241,-2.500550605078685,-13.47931581362986,-100.90881761999387,6.775275411849186,0.7819433818682402,-3.6477647741337824,-10.501491187128966,36.829935657267015,-10.098789745480698,199.79355752230245,-13.077748393584413,3.1419906844984586,-50.03776912529998,-108.55883692685521,-6.569071127214504,10.317978200427275,12.374141456040881,-94.57003463059448,-0.9959606549921283,22.073765097793746,6.837243051512964,-5.6462492538061175,-47.54723044142313,2.31272748067172,0.35505853373474205,15.13747251511962,-15.498258393441546,-15.910846951799353,81.16267880482917,-3.5015471791414563,-11.032525535548702,-0.9267142504230304,11.131453974491642,-165.9033937590926,-11.141872538402245,-10.046663140685341,-5.882728580141526,-93.86740363390439,149.04291387199441,-23.758983724543157,73.04953579777307,-24.2057804735016,15.042219933035755,-23.24540782723484,-143.65956777003143,-68.27854076601747,-23.13052489387529,-76.61161879314669,267.187681407118,3.163435776077737,-14.19438389472578,37.26746246299362,81.68572823562076,238.92084065975175,-133.19231833746477,-71.49879583488215,22.477338592376885,-107.34818339519089,32.4200135960944,-8.285864474806441,28.798047224222447,-48.33818760691864,-33.01586800591347,52.12983666228091,-0.07026122353664344,54.549144163887654,-10.624709495888709,44.46689305048965,3.4761537264544202,30.812094196381356,-34.44182239322717,63.9827871829615,-12.517304309829,48.11255168976148,20.96607870756958,-36.664982162171796,65.37126050792793,-22.52334448892888,-52.907245672499165,4.722035764303615,31.892176571552753,-20.14859588577643,15.36203312089646,-6.228754588951562,-3.1865563634319503,-9.503440464005774,-39.644948639537304,-41.23130135141879,-11.839746909797002,39.895676764667094,20.00621099493664,127.69696089664451,-52.45249023621271,30.26315458943583,-37.500818808018764,-14.368185018191541,-5.994690650277714,18.95000699549117,-8.784882461462548,0.07429189242877932,-34.326463091077365,-84.136212495598,0.9686929846299526,-1.8123792642798033],[-14.840821122759701,131.51286095100565,7.619782181565563,-5.61465335435871,-3.092359975918244,-42.190762507585156,-48.08028034298411,-37.3754087082497,-5.202419495344317,-12.182246160329017,-17.32916158293906,-13.193753320470218,16.830776528484108,-32.62953150485106,-21.87758359414972,3.1972725790617815,48.85289560901288,9.523648709355461,110.1517787204094,-8.530375371870832,-10.882985527640834,3.84832174146392,42.280934992273416,-45.162556635787645,-3.5800281722609286,-1.17336050210135,-48.863259850343916,20.01443924221749,19.51392209055016,-5.121788413170385,5.0056849719134275,25.48523066083561,-24.72376040493652,235.93753427063353,-13.29724895606971,-3.537225799969969,86.564208922004,-40.94612121199452,-7.7658688171357495,3.143075221677471,-5.50761733805499,-46.560087937376494,-6.082581346776266,13.138776353925303,19.037935854730858,5.900991292751782,-21.22102566337235,-0.06384145461554258,0.7157138818747957,4.914413583751367,-4.753155867717529,-15.017285738059108,73.01167044297604,3.6602874838687858,-8.84985600657665,-3.311633668049591,-5.80449171203517,-72.66874903664652,-10.810768949868311,-17.32799577742516,-6.636837460472782,9.689516453293436,177.76371415397978,-15.330355331809912,46.584032815602605,-18.68216883365655,-29.735919622318626,-15.126999124042127,-11.744156642331216,-49.33863223277361,-20.91454978593344,-48.65874991537598,223.39508070937748,0.9726356669020748,-18.524243720366105,23.674716935976242,40.13572566042436,215.95420317078973,-67.73147638488813,-45.79387800298855,4.738591767721856,-66.69595935333747,12.275516912558196,-16.902670665576267,39.089321569787536,-45.271448268560185,-30.650736545643475,34.11913890949946,-2.6360792750080133,28.079731499792057,1.0187040550267894,23.98885587013052,2.851816644127835,9.381267308078685,-9.708541757420726,42.24629185428891,-16.6441077359843,31.534734470620567,16.817234510530586,-25.202225720584845,37.20673970374846,-18.43724097173785,3.1611485313054875,-0.12211950106946601,5.8964172841770335,-12.530784403827996,6.830101548144665,-12.63970506750589,-6.394852898948192,-0.22912818987056593,-29.788545736070102,-41.03162371202117,-13.485841840817395,26.2964326125786,11.475916779282127,131.83386383438352,-42.05777860431268,42.67559789806837,-18.424958907537107,-15.780638262238332,-4.985221601020564,8.71295524712991,-47.325586812887195,-0.6596323427896786,-13.378019148399954,-83.75451859940738,-1.512300633985642,14.364216149245255],[-35.5662208906111,127.1393800395181,-30.413197935960184,-29.57317440068248,-64.64182121626695,-19.964259241486275,-58.922464416754096,-49.364083726453416,-51.40141357680386,-26.940050390915857,1.5387811044264597,-5.783354406328639,-17.799107714989837,-58.76996695146691,-13.469785789215852,-29.2580198499854,13.792550192495806,-24.27035432386239,44.26795558013693,-38.31444868631092,-31.22606032068122,-18.4502617725946,-4.454039947100896,-77.11813011314632,-3.025371270956941,-30.060012105017577,-41.57538021887515,-18.759166675580285,-21.643978288273388,-1.0565290271857517,-32.91542833245365,-6.5309856281406695,-11.619764623331434,164.6642983562718,-13.395014289859402,-15.651567655209536,-41.752731405307706,-50.779019677997645,0.3182958389554826,-25.024182338818896,-12.52763105402287,-28.681393985507636,-26.576740681922026,-13.403964054758216,-19.48593957581196,-23.4272597206819,-24.28013339889367,-32.8917076814391,-0.7340851263683276,-45.120739256850605,-43.037396405856015,-26.670251711180097,24.310309155495208,-8.28550316790572,-3.8895987886772247,-19.52767389239108,-21.298680837385085,-86.36309572946395,-8.805483905445016,-5.331344159191477,-4.912805675075633,-62.988963044274286,100.3204245074241,-42.43873441460343,-5.459402670532725,-56.093790182989665,-46.13106322932092,-32.94341032247128,-105.91095554448886,-71.58690855039363,-0.8750510057272627,-36.01641097248864,209.89007114339083,-21.586692371767853,-37.30340734090631,-7.859654599981455,2.005480814980473,191.99002055835203,-67.96529764369147,-29.739187970129844,-39.21865249832588,-38.46588866607552,-4.032389549145408,-3.4640297804845397,-11.144372656641817,-6.941489143414077,-42.24087730552648,7.450317940682053,1.125738539005693,6.369492355694479,-21.79907809164361,-1.6154864237939697,-11.835803895638602,-11.486326757142756,-61.45793654259712,17.001304362702868,2.5681463433932077,-5.025864882765649,-19.810393783733282,-16.7771612939426,-17.426626796774926,-40.60190227821451,-50.38700777727129,-16.749452455858897,-5.64247866369959,-8.304294356636467,-21.136842768369927,-8.364774163216005,-26.308482433364897,-30.332941806387844,-6.844247277261413,-13.88504484785218,-6.783305427493684,-4.756596313572233,-3.4034854009059496,100.89090475247734,-56.53822383451383,-15.357256137498815,-58.54822405726664,-13.48881112995758,-7.7275224930951705,-9.123503112068555,-22.140115695177215,0.09334891649201871,-52.74560252504752,-114.9855480928324,-26.162984178611065,-29.73606738657802],[1.6574533626366903,104.4869519168399,11.007971554920708,5.896110989292818,83.10451968201725,-23.907597018126108,-62.1517047627267,-27.318429474017723,14.67540730595524,6.367278792378594,-11.058176132097618,-9.437709597866132,25.265729243903063,-0.13802939140298065,-29.07563939859491,12.948915347291683,68.64189999344167,22.739879067202253,62.211927288448905,13.116304320785733,19.477667892341337,16.916639517069605,46.28573630765597,-56.45967117375335,0.5115565380196925,15.85040681314299,-101.10308300683394,14.473598745372206,30.35188411816896,-0.6431162427281993,-0.011470093216647048,2.125475443619994,-20.792829259494205,156.48513996575556,-24.125405223805828,4.674343246682477,63.849258267496644,-112.85401251914354,10.046413027678405,48.47046070800997,15.915918892450321,-88.96210095523449,7.404936238363082,27.021013820365425,8.083395178009582,0.05185691233223899,-51.903135238562584,38.80895206604084,7.8462719937855905,22.328680710518338,-20.0379728790535,-5.408107666161976,54.4086050795627,37.66850860714571,4.918274873743066,3.5718263735806337,7.752551874802275,49.01828231645398,-15.879587573072264,-15.954000486130672,-8.848366965936217,67.53696675609606,188.78982900033515,-19.274628320784522,58.39159635059477,15.511833495300582,-7.585402950250403,0.2607460828153565,89.9125563394621,-22.452368764484763,11.392143262336976,50.39318139398319,165.37398470050215,-36.16155527510605,-7.020563171448075,-10.514522882886187,31.68715921409896,112.14491524613089,-118.83589203753321,24.31435323172285,-24.313221160029297,-72.46477511888364,42.40949698815291,-14.703743070910136,49.59411650461985,-34.813264234751486,-16.68473036911012,60.26806212798725,-4.770281078245808,57.01354659530999,5.35685246630281,43.45260244300756,10.476650672302835,44.320435416749405,-3.740237600957485,39.45870629363121,1.5296686431444444,59.40350945042999,31.722671152319226,-3.483722249940989,70.29117657971614,5.576461597535856,83.46676334774195,32.81597223429126,36.615398982511486,0.4469839257686772,29.291522896809052,-4.880114407736437,3.685787229894977,6.671902979307259,-47.35663904456871,-45.51992787151787,2.5383406554216066,34.44100099327803,43.852059548940794,23.788594738196196,-34.96662198330864,21.94862295812569,-21.371546581676753,-22.33477048336207,1.6117428626112966,29.592971318405638,-22.924217554023393,-1.6228581098194712,-30.013175350460774,-11.938537477478846,-9.406063302957577,0.6122870728207213],[-42.58059405054136,189.1649869020508,-31.726459638524183,-34.321042660824524,-125.19651981160882,-35.91894541348814,-60.68287055066526,-61.320376339041474,-64.56210876698142,-35.99022727947029,-4.752437948118161,-11.176959441594132,-12.376895327199033,-84.26518391676366,-16.36704136687954,-26.714837263292747,28.87316331595564,-30.391284125619936,84.21886709027716,-50.30272876856311,-46.36354669601239,-19.54903635803349,-25.87239451664407,-81.29903272369071,-8.772342006299004,-42.28641712445151,-45.04758458778396,-14.002448476407306,-31.578503398670758,-11.765072460843975,-30.932719684539236,17.9693696835023,-24.002252911055706,241.31471926996653,-16.8161314036257,-18.117497058384632,-39.69864495094316,-48.042293098337616,-15.599645736567645,-44.32763022342463,-12.794323639656543,-38.430957787289294,-28.067118265351805,-7.072246528671659,-13.922416209609985,-20.970773039791467,-30.000994999406824,-53.05842016424191,-9.667590664674217,-47.74719556885448,-39.98385002641513,-30.31328861870116,39.813886481961454,-20.90123732414652,-19.994766166853406,-18.492125162136446,-15.58227091947417,-173.8322042178582,-11.85985437092158,-14.146675081348132,-2.4982220928545416,-115.23264668945953,133.28243877083867,-46.714961923635705,10.609576495142464,-80.44675950441007,-42.05362063058054,-48.04022305748779,-188.5635199806497,-99.55651263101687,-29.885512991680386,-89.52125418348803,289.81873038143607,-7.7567114969041215,-44.32418307125868,12.207773771633,28.902093550419384,284.3364040620239,-77.5719963310297,-71.19854198303526,-21.09594679455209,-52.33827842902018,-7.512176470911595,-12.319371649097855,-18.7300047810149,-21.06613806090863,-56.61753121753355,9.388358884177531,0.4419372984574814,16.611869010447453,-24.258606913266025,4.373510275306708,-11.493565139461284,-20.01551245571155,-67.84905344497783,35.654952062048906,-12.235489554341589,-23.185099332493703,-23.186144813361103,-47.96836559643482,-17.17646975239836,-59.74722722721846,-104.08210818796879,-30.433418053028127,-2.0934776481076582,-28.986192344473608,-21.84786060514922,-17.047442775220837,-24.48969992868678,-32.55417500941556,-9.858122320375482,-23.811152292362436,-14.904602122337966,3.3116924090797304,-10.955851622915718,179.42034669879516,-76.39359135384619,-3.1347478086457192,-49.44645226795109,-17.949499786867037,-21.57784095722179,-5.130955514485849,-49.056175118576874,-0.7123506588698747,-51.51795373878638,-149.16010861679777,-19.795173665672486,-23.332335792825493],[-31.064743440325532,138.19644122693555,-25.510933407096104,-32.983610572021156,-182.2733020075211,1.8627843874463808,-17.82501926538286,-43.41178125918603,-67.3440924648135,-23.66220173928761,-1.3724832291160967,-6.842078855445465,-8.570650554873747,-71.64742539904402,-5.344764944262753,-25.198170191414896,24.00611051334821,-26.070152294036436,31.52818002038687,-56.504732610531626,-47.580978619201005,-15.787768225539603,-11.736352730943565,-69.23675140599549,-10.97129074065247,-38.11876059627232,-34.933532650126054,-8.510543872720152,-32.66466205299395,-9.393358975920036,-20.348062011689347,38.36744660978971,-12.256208162405562,148.54738728923252,-7.883706191941194,-9.910882737209548,-104.63032490155305,-32.42692940099495,-20.398423331737924,-48.793884351251045,-3.50033261332267,-34.23793234260375,-21.50650865082608,-4.205091914972551,-5.3785846609638766,-12.788100206857617,-21.395635949696278,-54.48269379957475,-15.004550725587023,-39.108841197064315,-24.1944926798,-21.6890030624578,44.29769639497867,-34.98763914260841,-23.907455734317335,-12.665129165268048,-3.4723335799589927,-212.56029269916147,-5.4382137582753485,-9.359185763160484,-0.5050611976599785,-164.94431642684455,39.991221736387025,-31.39899029605781,9.327078438522584,-76.61273795852765,-19.708404536823334,-40.909494322563646,-240.91314781038156,-76.29346302716391,-39.05000841183825,-116.9581500742471,207.15919869341894,15.713037986067453,-31.68753499446485,30.866753909105334,42.380433939348244,218.6980782700927,-63.160119119368055,-87.93454539065722,6.203848393747259,-55.041307966708715,-5.637975190139057,-10.333620100499056,-20.36067815153037,-21.96060636558642,-42.72916765583802,11.979361048345025,1.6295738902216974,15.569058172526278,-25.31765200790089,9.791084328515131,-8.593326022957783,-10.54589647155371,-61.32717084634424,43.9341363505161,-18.186137674459896,-14.582888816008856,-13.601230223355076,-50.62194197344293,-14.540758714241914,-50.37821108556316,-139.62187298401165,-28.77488130984372,5.225283747996047,-30.21466416029377,-20.685199158253155,-10.222703876842534,-18.156250634839388,-30.893858580337856,-1.9599456792838539,-7.124658966849029,-17.71717141409671,1.4273355884735315,-15.84411582827104,135.55073867224294,-53.393510176418,2.3733679101082665,-44.92539863784865,-10.131531885521442,-17.2077554058235,-6.876877610209027,-0.7181362254553166,-0.22561706573048962,-40.298867898668846,-133.7338984293581,-1.672271066569495,-16.977490578800094],[-16.50396525123419,43.11200936411971,-14.398238672384204,-12.482423508700732,-15.815968068754051,-2.6889806108385477,-26.918099375331728,-17.96565118418962,-26.35759560850904,-12.453087829374901,-2.1450952693262724,-2.6067423188661145,-10.497833884556906,-25.3247991528006,-2.3072402789966913,-12.108078264598166,-8.565227694263074,-13.969463267432785,21.28187780885653,-17.338295003234418,-17.047886071343306,-9.671802714369617,-8.40831721592952,-28.497134995211326,-1.5177079725215887,-14.466053517329255,-3.6161732957851154,-12.705247282437634,-12.411266613736817,-3.0047066820903976,-12.197336530985472,-9.33232817760205,-6.375052977474991,57.67046844931892,-2.9278022092782927,-9.763080156261502,-3.192547824652043,-3.4315805812535904,-1.4207145803245427,-19.338177236943107,-9.139215546431856,-1.6568483027153738,-13.403159180761067,-8.558341264521887,-11.595400256658301,-9.494009662554989,-3.697442354837698,-20.671299363511643,-0.7218725247912292,-26.091084149651557,-20.20840197383649,-9.49740948743138,0.9082315562693581,-2.899504932416203,-1.3881238815390715,-10.145235537069254,-8.694206650907088,-23.284108313267723,-1.1148950847325572,-3.538229105644529,-0.7647510990688338,-15.954729764250958,35.17486773704561,-17.023826435937558,-15.921237733846631,-25.469653578189412,-29.783282255388556,-14.553368031598371,-27.00026428265739,-25.992346135981343,-3.3715828431301826,-9.621561439916526,64.85156916949285,-12.487387213047658,-19.97681676244273,-11.412803556520892,-12.031620827778898,63.36138010072115,-9.88567533871751,-7.287472848625169,-24.36295072936836,-3.6347199966504595,-6.240616999520243,-2.954976706143712,-8.353517106015858,-0.005421698617554371,-18.84748775244515,-0.41288915676818994,-0.6258505930599549,-4.82307032065124,-11.99406676470463,-8.824877524647874,-6.118376513622645,-9.798477548355487,-27.77066272108182,-3.1458216611496663,-1.9078295588539733,-16.405659653550817,-11.758355882731022,-6.849825476933274,-20.159043732263722,-18.727637588639862,-15.692571843748969,-10.512829928766173,-8.138436554199876,-3.2976769560354997,-10.167789631639291,-2.792571367648769,-10.424500635954578,-14.678853271332635,3.3855264015183355,0.903636708166648,-2.3186373936927893,-9.919620465140799,-5.932187893924349,36.4153880135846,-22.186288453109054,-10.763370434459665,-23.64657753789544,-5.157454589733088,-3.105816145643252,-4.943802363226185,-3.8223944783460384,-0.15334309209183214,-20.987977268520506,-45.78404338494984,-13.221395846377021,-14.391335855711691],[-22.753211047138095,80.1128234404588,-24.328966490680912,-22.829480888909494,-86.2666346194745,-16.217824636240557,-20.932844294412423,-24.627188587430442,-41.616667903767805,-19.01256700741233,0.08946949897074785,-2.5079757586547866,-14.744101993110338,-45.02353886606281,-3.736157027117912,-24.093146730361774,-0.8815027845553717,-19.510119939904342,31.975559917201643,-30.85689121805069,-25.382646292414144,-16.72887226235685,-27.788891925461147,-37.837354863046265,-3.8874737830843094,-25.371811570682457,-6.11147743762512,-16.140464340904675,-21.369097168205986,-6.003525322885832,-21.18444307670329,3.4587879440168114,-5.557494942905708,99.38466102103665,-4.334700253154087,-12.339641519353137,-45.49262383506097,-8.443693021778113,-9.852298712708285,-29.295642301037077,-7.4729824452855835,-3.1979028106769403,-16.81334430755201,-12.401075767755366,-10.059214309948302,-13.510711968099683,-7.022374755410265,-34.19646667991942,-5.640737696853301,-33.52957939002663,-25.314687731645314,-18.37757062575706,3.3402879718990066,-21.802334905785077,-10.721448915896218,-11.444729032965574,-9.499619678755119,-101.4214901637619,-2.238181734233358,-2.844866686998837,-1.109166789294527,-85.45227458655025,29.665500725994193,-25.160581531247086,-8.402558648926394,-44.52825128259301,-20.52340575533783,-24.753986102880283,-123.48550862894135,-50.43686699201123,-13.411819372941704,-54.45437161324783,130.36944067815236,0.5885664401249268,-23.517979685479236,3.373609878259064,6.207675730913017,136.65501531872093,-20.93869574933369,-40.254467514789894,-11.131947019665576,-12.996670094627813,-12.25775951865566,-3.5880400719012577,-28.16808759980018,2.9759043644726066,-26.781988334293565,-13.233446733577908,2.315069380330452,-3.074248060959458,-14.170621893635062,-4.140571600566281,-8.033403837915417,-16.63719740834473,-40.27645266696733,8.187748797703417,-3.904486832620038,-31.09535465462474,-20.7607323028629,-24.64028418746668,-24.493860229564223,-31.694105134304053,-78.55568138526898,-18.944948097776805,-8.580873113583738,-15.177190585399636,-22.1271065913443,-8.134721291593491,-15.538088295859565,-24.313286639644314,10.806484092716422,5.402163215950972,-7.978286133852565,-8.119095529444564,-12.981673946902061,86.88235255496727,-36.29288946912308,-13.212302170034796,-27.8441922250114,-5.969849514826377,-10.294250555302394,-10.984004898516623,-19.318895339384696,1.507579986740184,-27.33487041696312,-76.01357495191704,-13.634274961433858,-16.390932121628758],[0.4273088071008555,0.5558716403364197,0.40101331728732426,0.6149603675788406,0.42694015360992843,-0.007965319876365395,-0.7486250619897636,-0.2631223196881547,-0.02454399816430497,0.44458355976417474,-0.8306506112021932,-0.8926294734877809,0.1315320811897318,-0.9991024458231839,0.9671939416081243,-0.5524085139814514,-0.3132229843776999,-0.47375150211596395,-0.08068504827579703,0.4164327417881988,-0.7218339708810171,-0.3336427774188433,-0.4895605523781894,0.5972251523523973,0.2701404538983514,-0.7467109425566583,-0.010779384149965932,-0.8902024468663026,-0.2397432161842632,-0.7123202573883471,0.2977900240782918,0.9523550226942761,0.15300126041477435,-0.36072510888072884,-0.7364495061549818,0.022958027779941492,0.707669133178503,-0.14237708818806327,-0.9853480544908528,-0.8767365479083393,-0.3799023018496226,-0.6686798530250999,0.22244119021046327,-0.01999669207490351,0.6360280964341114,0.9817629621388648,0.4585713357131409,0.8404218373281855,0.2597920749120024,-0.2696816700877802,0.8355038378303434,-0.3511307495477043,-0.03114586510908879,-0.17565959081310734,-0.4739176418289981,-0.20035331271512646,-0.2314988902568853,0.39124863414510536,-0.8522458647944062,0.43320658016802893,-0.6058970467004432,0.948101397929455,0.7160542165414987,0.9495722907278736,0.03250424192926804,0.9136475183353729,0.47239632594659664,-0.34089801009285514,0.6078658456862045,-0.24460626287677956,-0.18875007828525936,-0.6926114258850826,-0.37721179498411317,-0.255810924170329,-0.6335403340699717,0.8279999721069085,0.7802028998778878,0.7349640915240339,0.9506849688438126,-0.600698451747947,-0.11692339587680278,-0.6897262580319747,-0.6496018223466522,-0.11213577278486131,-0.324603308868622,0.038584622695144954,0.6401953729317169,0.7067507649457938,-0.4832937031595681,-0.7824941840850856,-0.6716657989213171,0.6446714134269591,-0.8283009701697988,-0.4640496932959959,0.3307888463291353,0.120144935025841,0.4005052060399894,-0.069866825660295,-0.22673543662158435,-0.7112121125546005,0.047751367156729785,-0.5752228305609663,0.7139829202796522,0.9520580963060108,-0.9181284524817417,-0.7871017671148981,0.5619105909367574,-0.6233604135003397,0.23930034923263932,-0.317781215742861,0.9047830647182269,-0.7854335904861993,-0.06732162846511747,0.7246662833095341,-0.8689902467617006,0.6280565526157909,0.8552074859320191,0.6129827382008157,0.40151871777790626,-0.44650549088660707,-0.5581539150369395,0.19854304869438977,0.8262501434853968,-0.3322837000131149,-0.20895031657560814,-0.10045593690669152,-0.15756046987242378,0.6608201976796622],[-0.8454220165968573,-0.8048259535837858,-0.6477362754349181,-0.51099966887696,0.7107865302620837,-0.010169123422532955,-0.44445398139314785,-0.0053822334108315495,0.8901850670883236,-0.04603386982490232,-0.5924683215430249,0.18972297616164946,-0.12696200248758416,0.19798551371990047,0.2956519902207426,-0.15125577138765767,-0.7618706607639321,-0.07678865925367395,0.8948399078613907,0.22962811009303685,-0.14866232584249683,-0.23733149467554782,-0.9694149358636315,0.5424465305258548,0.08648927285188845,0.35111925243713005,0.4111093464171862,0.4838098636945132,0.47454517130838614,0.8309135241861645,0.3406419730625605,-0.7021843419659866,0.24168135544405578,-0.0233545843972931,-0.2561224132266884,-0.7042987272859884,0.42957754067429565,0.9739187802660032,-0.13879653398561098,-0.9618152170960328,0.8403533709072382,-0.331654851326038,-0.5246099207827739,0.47141881753679327,0.341921131398359,-0.6177410711581173,0.8585084590962624,-0.9769072830873196,0.8809275923609174,-0.7199972105378407,0.9055369207556843,0.24827750024413353,0.4734081781633859,0.08044759284223213,-0.009664468380106594,-0.8165920041834576,-0.23436068396055143,-0.5847677584970379,0.23253698171814952,0.9459172058489838,-0.12954496244780334,-0.3436833000936579,-0.6864325820502861,-0.9995223319299775,-0.10014906872384666,0.42812908123105853,-0.2830751853510334,-0.6966841706466029,-0.548755581645727,0.06558408537395177,0.46190024420768694,0.7384595703308241,-0.8025234966898753,0.5208659222439675,0.3387721634421128,0.10282180166600963,-0.5589251238831419,-0.8398376387920328,0.1743277857508252,0.1843004424846031,0.8643321836319764,-0.8825837465045976,-0.044039342575916685,0.735897939107534,0.16053681157481492,-0.18617149946587075,0.8601741965312368,-0.24435784804116834,0.0020377774501514345,0.7780654462328802,-0.32698173267943353,0.3262131479125485,-0.12616954721308593,0.8638854404392808,-0.608664822424934,-0.07292397862133049,0.516646033722274,0.6489661704765819,0.23875249898762885,0.15659090278925492,-0.45300381208779594,-0.31537591883725913,-0.15126025955504963,-0.6893312663246389,0.2599918638850718,0.6918881815331335,-0.973483448220644,-0.0769551565860116,-0.5291470801225344,0.8908020783249739,0.45273434342539165,0.7219480496062456,0.2878033530922539,-0.33348699106854696,-0.45736081437015663,0.9262048962140024,0.9573138444167446,-0.05177176989969423,-0.03026604655786347,-0.39971869284020833,0.5221907963314845,0.8925598824789733,-0.4260360061889852,-0.6509176270114017,0.4525506163045421,-0.40522435923674527,-0.26774533795000854,-0.47135083172974257],[-0.8125089322816414,0.4032799495990109,0.06232765652771555,0.2953790590766814,-0.3920749575889242,0.09955963923376254,0.8501978346504706,0.2624530214421994,-0.3296482334645905,0.9479098441206526,-0.6964148187517298,0.5981478869164061,-0.21430383729521596,0.10225490209736288,0.8978956000984724,0.4185976483137517,-0.07791228453973087,-0.5242688660845851,0.2975542367944004,0.40326003117950115,0.3761219137106502,0.6936077731185057,-0.9163867511124058,0.344896434217115,-0.2419281530950057,-0.30649195060927337,-0.11006753877900977,-0.0818323226012363,0.21389523060911442,-0.5218558722779756,0.11157492558228777,0.18424061400102865,0.7572910722365283,0.4471089376647459,0.5052439211860587,0.5403570502362407,0.9323060389886186,0.5142841224285415,0.3602224817518085,0.8739451170643249,0.7325767539572583,-0.9228653351022809,0.8843274462681312,-0.1255410695446053,0.7692760197971453,0.06935883078178273,-0.9890512414801367,-0.5870993757865026,0.43044078597308255,-0.10126353727252546,-0.9570665942162373,-0.9810272566007017,-0.4855827625904907,-0.3254921232447501,0.2543114936102895,-0.46122582053807015,-0.42500479716259365,-0.7987656400729479,0.8902966097754201,-0.08326921111378116,0.7755797876894088,-0.589236108109624,-0.13975388390379218,-0.48864743487753026,-0.8806216646541958,0.01141194581097249,0.5815320651667535,0.24944039151834518,-0.41167804710849554,-0.12792021500469808,-0.9645056422835498,0.6748315666757185,0.8015206348632953,-0.6385965061099994,0.09879213990323477,0.1657078786046715,-0.1420739998562386,0.3611021850867111,0.0454741178342184,-0.3970026012773187,-0.9656782628958398,0.015644262818204524,-0.3084736178583025,-0.24028617540378105,-0.5481433864486287,-0.18975108920793904,-0.036031450133334975,-0.5846244897751651,-0.7089146570861562,-0.5570377923005068,-0.2672433254983426,0.07327459389207469,0.854363972264101,0.29059642649625106,0.26972911780399356,0.7279357561811262,-0.8875407112657943,-0.7225275181201445,0.7029671558262018,0.6753559522786836,0.41827362217454134,-0.13505028439452538,0.6505539496225619,0.21885350527299607,-0.5257898681267763,0.6591797962969124,-0.7996778623538363,-0.11123353612730735,0.1590545142423605,-0.44204339110158974,-0.9059138603204171,-0.825651797286981,0.0904709266561814,0.2667604087655082,-0.65079259405511,0.40388351413212265,0.6928935718618066,-0.4718176940458667,0.7335708800753453,0.8574668054931633,0.15000906874674058,-0.001473187245168095,0.22238813391421886,0.22896897696102592,-0.9523472719572417,-0.1645081176882468,0.11125919486793023,-0.8687942139515097],[0.411466810868629,0.5047608615820804,0.512111833065028,0.018083217788185557,-0.9671570585033016,0.5892494442249774,0.08837563180428276,0.25190684209965575,0.13934295870591962,-0.15864673782594974,-0.07672153759250566,-0.7587654558146331,-0.7979582687201003,-0.3385688480138378,-0.7234822678672375,-0.8968459414565277,-0.5858115895353082,0.4440881022309755,-0.9509502541449582,-0.3010790572488906,0.6356820002523347,0.016825208495601984,0.12583273964337227,-0.5134489122015831,-0.5902882570617325,-0.8940446304847223,0.5377626392724753,-0.912201938779519,-0.8873925791118036,-0.48291557330668233,-0.7467886394037198,-0.6755284557054622,-0.004687437296292618,-0.7406448201635105,0.50931611600936,0.3601570856775633,-0.03773592038609497,0.23896438967791234,-0.14890872565627955,-0.8044250203018142,-0.7324263232004773,-0.2506517424554584,-0.43711871854158435,-0.33495968321637193,0.387436550794507,-0.11063347255824141,0.796178375982123,-0.32348948469642735,-0.6893769309501852,0.270561415659865,-0.7604735830857248,-0.8970416326594668,0.7657611235083044,-0.4514892910514381,-0.21752053489775536,-0.4414242753895077,0.7050781188620334,-0.14621211585400884,-0.6197277234330625,-0.6444658186296275,0.2585486734422777,-0.46890763996395357,0.3553884770950204,0.2944565519837421,0.22800339591050944,-0.22824144373734656,0.041121358651337925,-0.5458917937511201,0.5862628113598887,0.2917080712371578,0.06925318250942114,0.7210569249017507,-0.6607345342782671,0.31164939772406974,0.4716904618878788,0.49186793476815716,0.062003975248035914,0.38761080105587054,0.05462734452374329,-0.006924561696913578,0.02208339720078678,0.5615051333502494,-0.7656127558566013,0.6048059656355349,0.4721582969865743,-0.9904879478765634,-0.9613621889936059,-0.2761913897688011,-0.5907424872658691,-0.33458036378211675,-0.10939858789063539,-0.29176318789244515,-0.9369153647729842,0.20038742858301983,0.23333407604080758,0.29038825753691544,-0.32733263174486904,-0.201167205862117,0.22086660201811403,0.7189927455145422,-0.918248345884968,-0.4828177501829205,0.005031772776705079,-0.8938763597872952,-0.5119629620815269,-0.3580338044216411,-0.2104208382776629,0.7579493133798247,0.7135489874099958,-0.1851505468474577,0.9071586793468356,0.623458224916456,0.9367234224561742,0.9387471079943248,-0.24390710979808583,0.23574925098454313,0.013507723169133623,-0.3979419893306937,0.6888101291848754,-0.4240565630530626,0.41994741961734405,-0.5089529132145234,0.8606048572782825,-0.31363736916594576,0.6006611483785171,-0.3616180917633778,0.28645640052442456,0.9063794623093777],[0.10092891673451243,0.6830659597041988,-0.7141693839085335,-0.1635166174629794,0.46063040704103697,-0.11314806307118985,-0.8722203120896279,-0.15615390440373744,0.6469673352253089,-0.12717179818537705,0.004843292677550792,-0.8281009261013481,0.6765342355014674,-0.7790727942508129,0.6012620983300159,-0.9717405259758825,-0.8647640066659559,-0.9897651489663799,0.518987374781037,0.5174269686472162,0.12401236550980776,-0.42941522139736676,-0.2369750370348651,0.5261206440259065,0.8114090609641287,-0.3835886917762261,0.15658527350923146,0.9621486978565161,-0.7991522638181512,-0.38582237431548494,-0.9286090451814384,-0.9859711467666914,0.0010792098900838099,-0.7466827318854139,0.3601405754112701,-0.6915922974730351,-0.254002371699523,-0.2867953448466003,0.6186758978522624,0.09329107360900757,-0.19300624398051047,-0.03818903150549513,0.4690028730521205,-0.21682628693911665,0.06838925272982443,0.5484121244439266,-0.43765520208248665,-0.8075266839804911,-0.7455018760689649,0.6872408238925516,-0.06301510283262779,-0.9593256365765299,-0.7870565861437919,-0.05581178639004625,-0.20011281411246173,-0.5696489422837514,-0.8155416781829903,-0.900244194733336,-0.06856312194657299,-0.5161322894754803,0.8622421366595243,0.536946556561134,-0.8506121095546133,-0.9998746294222922,-0.5857608820294611,-0.2516988593683416,0.5024282136081601,0.23840904330328216,-0.10471935912573427,-0.7273347834326129,-0.7426904583641791,-0.7984711865336998,0.5710480066343795,0.8830898123372575,-0.48600924587160854,0.18221930374344497,-0.9135837875392041,0.8986013972618281,0.0988379611379413,0.8734134588734559,-0.5265516341187468,0.6353847999192257,-0.6197526777169484,-0.9187455367309583,0.22740332022263843,0.023295184153925508,-0.7518880366007084,-0.636230539796915,0.7391581384635808,-0.6166856875523052,-0.474849063246086,0.7465604968861967,0.8886085572114082,-0.7151472472878782,-0.1299682309955399,-0.9402312519465506,-0.545659941750853,0.4892052441101944,-0.2085962575315241,-0.06305916956920887,0.6238481676967127,0.14740471068069771,-0.6014372277991589,0.44625070017668156,0.49687247491746156,0.9684445834237292,0.5464366689483398,0.12610570911957897,0.21708150032237983,-0.12386787330447824,-0.19773374743602412,-0.6459385792100991,-0.3374566741428189,0.7618421540680291,-0.6438456542232611,-0.4782820801856773,0.0071742383113684305,-0.26083335588258505,-0.7929752431457437,-0.6563719668232566,-0.05616968004052536,0.39507481608063744,0.7483480177728903,-0.001462680723459009,0.46555974665867206,0.9662914871313202,-0.8655759533397602,-0.8517482351666903],[-0.7749997410156113,-0.9443902534785829,0.9672219456373132,0.7899642230992181,-0.15083230810011727,-0.002205857905296149,-0.005417484527210359,-0.6754555316169757,0.08926245351924456,-0.20242863433351221,0.5739891864438795,-0.4453406542818419,-0.8505593271404246,0.9986156616842736,0.3319664658626298,0.4005188708373866,0.7874858360357,0.9519850447064835,-0.4425338857765464,-0.8467899140756874,-0.532774344984186,-0.8529569557860297,0.37248743203959345,-0.9050830143040893,-0.31700683673411945,0.6243158771097237,0.1017861566610434,0.2588834499982733,0.7578556064008279,0.20826407758516652,0.2919709374782027,0.2436808652995608,0.5918652877935817,0.24349589258837723,0.8627089807049417,0.9118787106114246,0.2504684281088081,0.8339874134075478,-0.16563579438992715,-0.8807028389672635,-0.8482514704624089,0.5266480140867649,0.8742263912118218,0.21525876876732486,0.6357401955935171,-0.1459502805816557,0.3697354973894451,0.7652888632961066,-0.3969550099311472,0.5215972494608665,0.24329926151789305,-0.07725640015444712,0.3459954908538587,0.7891758078120805,0.9110998491120919,0.660976593410687,-0.5166494568313031,